{"learner":{"attributes":{"scikit_learn":"{\"_estimator_type\": \"regressor\"}"},"feature_names":[],"feature_types":[],"gradient_booster":{"model":{"gbtree_model_param":{"num_parallel_tree":"1","num_trees":"50"},"iteration_indptr":[0,1,2,3,4,5,6,7,8,9,10,11,12,13,14,15,16,17,18,19,20,21,22,23,24,25,26,27,28,29,30,31,32,33,34,35,36,37,38,39,40,41,42,43,44,45,46,47,48,49,50],"tree_info":[0,0,0,0,0,0,0,0,0,0,0,0,0,0,0,0,0,0,0,0,0,0,0,0,0,0,0,0,0,0,0,0,0,0,0,0,0,0,0,0,0,0,0,0,0,0,0,0,0,0],"trees":[{"base_weights":[3.1253168E-1,-1.2908247E-2,8.624963E0,-6.822923E-1,4.758433E0,1.1603483E1,-1.6899936E0,1.8453187E0,-1.7425051E0,8.508764E0,1.8563538E0,3.5676104E-1,7.2037416E0,7.627717E-2,-9.5429696E-2,3.1925793E0,-5.4002957E0,-6.6060224E0,-1.3846768E0,1.2636259E1,-2.5132792E0,1.3451003E1,-1.9123802E-1,1.0644853E0,3.4916613E-1,-2.5970593E-1,8.562917E0,-1.2919615E-1,-3.3292928E0,-1.391309E-1,-5.993309E-2,-1.0364739E0,-1.309781E-1,3.366322E-1,8.577248E0,-1.099534E-1,1.2747617E-1,4.1831976E-1,-8.628901E-2,-3.3006287E0,1.6776003E0,-2.8865075E-1,8.0998436E-2,-4.265198E0,2.8927677E0,3.6342388E-1,6.0766053E0,-1.23616844E-1,1.4205107E-1,6.516337E0,-1.349057E0,-1.000542E-1,1.08661585E1,-8.488675E-3,-1.19730614E-1,-3.84832E0,7.0124016E0,8.520896E-2,-2.4382668E0,-1.0213157E0,-1.4909023E-1,-1.4578313E0,6.776649E0,8.270424E0,-2.6216586E0,8.052764E-2,5.3603595E-1,-2.642322E0,3.1766087E-1,-1.1553646E0,3.0234987E-1,2.25245E0,-9.2906825E-2,-1.2511551E-1,2.2439137E0,2.7839383E-1,2.2676964E-1,4.29585E-2,-9.3726195E-2,1.2836686E-1,-2.2338083E0,-1.4882329E-1,5.582804E0,1.6908392E1,-8.254235E-2,-1.619345E0,1.0009347E1,-8.6851254E-2,5.0627905E-1,-2.9218998E0,1.873142E-1,-3.0869915E0,1.9502621E0,3.814853E0,-1.1656325E0,4.252954E-2,-7.779856E-2,-2.6369989E-2,7.786002E-2,1.4328946E-1,-7.479104E-2,9.99458E-2,-2.1496615E0,-1.2324526E-1,3.7083893E0,2.3579104E-1,8.8400936E-1,4.1155112E-1,4.196109E0,7.573528E-2,-9.3174465E-2,4.9173617E0,1.367705E1,1.5232027E-2,2.2280843E-4,-8.1051804E-2,-4.945196E-1,-2.3398058E0,-1.2998722E-1,1.2217713E1,-2.0409842E0,1.1665686E0,4.7086492E-1,6.440998E0,-2.6537402E0,-6.4215004E-2,-8.628901E-2,1.0459742E-1,2.0720558E-2,4.241091E-2,-4.145771E-2,1.9374004E-2,1.0871773E-1,2.2874564E-1,-1.21617675E-1,3.317275E-1,1.5323745E-1,5.8893174E-2,-7.398903E-2,-5.0944176E-2,1.4980729E-1,-7.64577E-2,4.4941947E-1,-8.271099E-2,1.3064755E-1,7.395854E-2,-1.3382533E-1,-1.6302107E-2,3.558467E-1,-6.2133532E-2,2.0520894E-1,-5.7169206E-2,5.520896E-2],"categories":[],"categories_nodes":[],"categories_segments":[],"categories_sizes":[],"default_left":[0,0,0,0,0,0,0,0,0,0,0,0,0,0,0,0,0,0,0,0,0,0,0,0,0,0,0,0,0,0,0,0,0,0,0,0,0,0,0,0,0,0,0,0,0,0,0,0,0,0,0,0,0,0,0,0,0,0,0,0,0,0,0,0,0,0,0,0,0,0,0,0,0,0,0,0,0,0,0,0,0,0,0,0,0,0,0,0,0,0,0,0,0,0,0,0,0,0,0,0,0,0,0,0,0,0,0,0,0,0,0,0,0,0,0,0,0,0,0,0,0,0,0,0,0,0,0,0,0,0,0,0,0,0,0,0,0,0,0,0,0,0,0,0,0,0,0,0,0,0,0,0,0],"id":0,"left_children":[1,3,5,7,9,11,13,15,17,19,21,-1,23,-1,-1,25,27,29,31,33,35,37,39,41,-1,43,45,-1,47,-1,-1,49,-1,-1,51,-1,-1,-1,-1,53,55,57,-1,59,61,-1,63,-1,-1,65,67,-1,69,71,-1,73,75,-1,77,79,-1,81,83,85,87,89,-1,91,93,95,-1,97,-1,-1,99,-1,101,-1,-1,-1,103,-1,105,107,-1,109,111,-1,113,115,-1,117,119,121,123,-1,-1,-1,-1,-1,-1,-1,125,-1,127,-1,129,-1,131,-1,-1,133,135,-1,-1,-1,137,139,-1,141,143,145,-1,147,149,151,-1,-1,-1,-1,-1,-1,-1,-1,-1,-1,-1,-1,-1,-1,-1,-1,-1,-1,-1,-1,-1,-1,-1,-1,-1,-1,-1],"loss_changes":[9.980475E2,1.1396166E3,4.4470264E2,8.414049E2,4.6358124E2,1.8334167E2,8.252228E1,9.223817E2,3.7620068E2,8.884083E2,6.1720984E2,0E0,4.806221E2,0E0,0E0,1.4648025E3,1.333844E1,8.92334E-2,3.659385E2,1.0677075E2,1.8802E2,5.984304E2,1.3805414E2,2.4886354E1,0E0,6.285749E2,6.387981E2,0E0,2.4476358E2,0E0,0E0,4.6804767E2,0E0,0E0,3.2556567E2,0E0,0E0,0E0,0E0,7.865129E1,4.6353467E2,5.7265495E1,0E0,2.197201E2,4.8032346E2,0E0,5.137485E2,0E0,0E0,1.0294292E3,4.0577536E2,0E0,4.1946893E2,6.0786892E1,0E0,1.2850127E2,3.6743466E2,0E0,4.926808E1,1.20247925E2,0E0,6.229462E2,1.7088698E3,3.740166E2,3.3737694E1,2.1698792E2,0E0,2.2168549E2,4.3403433E2,3.347043E1,0E0,2.7467096E1,0E0,0E0,1.0949452E2,0E0,6.521861E1,0E0,0E0,0E0,2.750127E2,0E0,1.9185332E2,2.9077222E2,0E0,7.995906E1,2.737688E2,0E0,3.5898173E-1,1.4389549E1,0E0,2.3337689E2,4.281438E2,1.276217E3,6.821011E2,0E0,0E0,0E0,0E0,0E0,0E0,0E0,1.7357405E1,0E0,1.5046684E1,0E0,2.187199E1,0E0,6.864517E0,0E0,0E0,7.007923E2,5.8876587E1,0E0,0E0,0E0,4.1769024E1,1.8211105E2,0E0,5.542721E2,1.6617746E2,4.7777322E2,0E0,8.2848035E2,3.205687E2,2.9990692E1,0E0,0E0,0E0,0E0,0E0,0E0,0E0,0E0,0E0,0E0,0E0,0E0,0E0,0E0,0E0,0E0,0E0,0E0,0E0,0E0,0E0,0E0,0E0,0E0,0E0,0E0,0E0],"parents":[2147483647,0,0,1,1,2,2,3,3,4,4,5,5,6,6,7,7,8,8,9,9,10,10,12,12,15,15,16,16,17,17,18,18,19,19,20,20,21,21,22,22,23,23,25,25,26,26,28,28,31,31,34,34,39,39,40,40,41,41,43,43,44,44,46,46,49,49,50,50,52,52,53,53,55,55,56,56,58,58,59,59,61,61,62,62,63,63,64,64,65,65,67,67,68,68,69,69,71,71,74,74,76,76,80,80,82,82,83,83,85,85,86,86,88,88,89,89,91,91,92,92,93,93,94,94,102,102,104,104,106,106,108,108,111,111,112,112,116,116,117,117,119,119,120,120,121,121,123,123,124,124,125,125],"right_children":[2,4,6,8,10,12,14,16,18,20,22,-1,24,-1,-1,26,28,30,32,34,36,38,40,42,-1,44,46,-1,48,-1,-1,50,-1,-1,52,-1,-1,-1,-1,54,56,58,-1,60,62,-1,64,-1,-1,66,68,-1,70,72,-1,74,76,-1,78,80,-1,82,84,86,88,90,-1,92,94,96,-1,98,-1,-1,100,-1,102,-1,-1,-1,104,-1,106,108,-1,110,112,-1,114,116,-1,118,120,122,124,-1,-1,-1,-1,-1,-1,-1,126,-1,128,-1,130,-1,132,-1,-1,134,136,-1,-1,-1,138,140,-1,142,144,146,-1,148,150,152,-1,-1,-1,-1,-1,-1,-1,-1,-1,-1,-1,-1,-1,-1,-1,-1,-1,-1,-1,-1,-1,-1,-1,-1,-1,-1,-1],"split_conditions":[1.7401869E0,1.1431025E0,1.9728353E0,-8.17498E-1,5.749046E-1,1.8285832E0,1.9563384E0,-2.652159E-1,-1.3887432E0,1.7643359E0,1.2127603E0,3.5676104E-1,9.848326E-1,7.627717E-2,-9.5429696E-2,-1.0607492E0,-1.0820416E0,1.2252947E0,1.3194981E0,9.549999E-2,-1.8969092E-1,1.3775686E0,9.5817024E-1,2.226044E0,3.4916613E-1,-8.3621985E-1,-7.0116913E-1,-1.2919615E-1,3.2095164E-1,-1.391309E-1,-5.993309E-2,-1.0579873E0,-1.309781E-1,3.366322E-1,1.2426137E0,-1.099534E-1,1.2747617E-1,4.1831976E-1,-8.628901E-2,1.4449528E0,1.3715042E0,-5.988149E-1,8.0998436E-2,-1.396913E0,-1.354328E0,3.6342388E-1,-9.2460597E-1,-1.23616844E-1,1.4205107E-1,-2.3872827E-1,3.9230502E-1,-1.000542E-1,1.8841286E-1,7.813777E-1,-1.19730614E-1,1.2691703E0,1.2252947E0,8.520896E-2,1.8969774E0,-2.8103297E0,-1.4909023E-1,-6.125569E-1,-6.0687053E-1,-6.67051E-1,-5.087811E-1,-1.0812066E0,5.3603595E-1,7.455322E-1,-6.0033556E-2,1.3487588E0,3.0234987E-1,1.2426137E0,-9.2906825E-2,-1.2511551E-1,1.3316997E0,2.7839383E-1,1.4094131E0,4.29585E-2,-9.3726195E-2,1.2836686E-1,-1.524023E0,-1.4882329E-1,-2.0905335E0,-1.1355956E0,-8.254235E-2,-1.0304234E0,-1.0284877E0,-8.6851254E-2,-9.117014E-1,-3.032511E-1,1.873142E-1,1.6260374E-1,-5.3682375E-1,1.0459213E0,5.2070546E-1,4.252954E-2,-7.779856E-2,-2.6369989E-2,7.786002E-2,1.4328946E-1,-7.479104E-2,9.99458E-2,1.3194981E0,-1.2324526E-1,-1.4924068E0,2.3579104E-1,-1.4924068E0,4.1155112E-1,-1.0781703E0,7.573528E-2,-9.3174465E-2,-1.0381662E0,-9.6267444E-1,1.5232027E-2,2.2280843E-4,-8.1051804E-2,-2.8905606E-1,1.5421577E-1,-1.2998722E-1,-5.568258E-1,3.8074672E-2,8.3622205E-1,4.7086492E-1,4.716681E-1,1.2898176E0,1.2272304E0,-8.628901E-2,1.0459742E-1,2.0720558E-2,4.241091E-2,-4.145771E-2,1.9374004E-2,1.0871773E-1,2.2874564E-1,-1.21617675E-1,3.317275E-1,1.5323745E-1,5.8893174E-2,-7.398903E-2,-5.0944176E-2,1.4980729E-1,-7.64577E-2,4.4941947E-1,-8.271099E-2,1.3064755E-1,7.395854E-2,-1.3382533E-1,-1.6302107E-2,3.558467E-1,-6.2133532E-2,2.0520894E-1,-5.7169206E-2,5.520896E-2],"split_indices":[6,2,2,6,6,6,6,2,2,2,2,0,2,0,0,6,6,6,6,6,6,6,6,6,0,2,2,0,2,0,0,2,0,0,2,0,0,0,0,2,2,2,0,6,6,0,6,0,0,6,6,0,6,6,0,6,6,0,6,2,0,2,2,2,2,2,0,2,2,2,0,2,0,0,2,0,2,0,0,0,6,0,6,6,0,6,6,0,6,6,0,6,6,6,6,0,0,0,0,0,0,0,6,0,6,0,6,0,6,0,0,6,6,0,0,0,6,6,0,6,6,6,0,6,6,6,0,0,0,0,0,0,0,0,0,0,0,0,0,0,0,0,0,0,0,0,0,0,0,0,0,0,0],"split_type":[0,0,0,0,0,0,0,0,0,0,0,0,0,0,0,0,0,0,0,0,0,0,0,0,0,0,0,0,0,0,0,0,0,0,0,0,0,0,0,0,0,0,0,0,0,0,0,0,0,0,0,0,0,0,0,0,0,0,0,0,0,0,0,0,0,0,0,0,0,0,0,0,0,0,0,0,0,0,0,0,0,0,0,0,0,0,0,0,0,0,0,0,0,0,0,0,0,0,0,0,0,0,0,0,0,0,0,0,0,0,0,0,0,0,0,0,0,0,0,0,0,0,0,0,0,0,0,0,0,0,0,0,0,0,0,0,0,0,0,0,0,0,0,0,0,0,0,0,0,0,0,0,0],"sum_hessian":[3.68E2,3.55E2,1.3E1,3.12E2,4.3E1,1E1,3E0,9.2E1,2.2E2,1.8E1,2.5E1,3E0,7E0,1E0,2E0,7.8E1,1.4E1,1.4E1,2.06E2,1.3E1,5E0,3E0,2.2E1,5E0,2E0,4.8E1,3E1,8E0,6E0,1.2E1,2E0,1.94E2,1.2E1,5E0,8E0,4E0,1E0,2E0,1E0,8E0,1.4E1,4E0,1E0,2.1E1,2.7E1,5E0,2.5E1,5E0,1E0,7E0,1.87E2,1E0,7E0,4E0,4E0,7E0,7E0,1E0,3E0,1.1E1,1E1,1.3E1,1.4E1,2E1,5E0,6E0,1E0,1.05E2,8.2E1,2E0,5E0,3E0,1E0,5E0,2E0,3E0,4E0,1E0,2E0,1E0,1E1,7E0,6E0,7E0,7E0,3E0,1.7E1,3E0,2E0,5E0,1E0,9.6E1,9E0,2.4E1,5.8E1,1E0,1E0,1E0,2E0,1E0,1E0,1E0,3E0,6E0,4E0,2E0,4E0,5E0,2E0,1E0,2E0,8E0,9E0,1E0,1E0,3E0,2E0,8E1,1.6E1,2E0,7E0,2.2E1,2E0,9E0,4.9E1,2E0,1E0,2E0,2E0,3E0,1E0,1E0,1E0,5E0,3E0,5E0,4E0,1E0,1E0,7.9E1,1E0,1E0,1E0,6E0,1E0,1.7E1,5E0,6E0,3E0,4.8E1,1E0,1E0,1E0],"tree_param":{"num_deleted":"0","num_feature":"8","num_nodes":"153","size_leaf_vector":"1"}},{"base_weights":[-1.2384844E-2,-9.766148E-1,3.045293E0,-3.0230328E-1,-2.9795437E0,6.9166474E0,6.4851886E-1,5.674558E-1,-3.458964E0,-1.3801949E-1,-1.4242823E0,1.3556483E1,5.0514197E0,5.516532E0,-1.4279996E0,-5.2014425E-2,5.145795E0,-1.3384135E-1,-2.6176002E0,3.3158402E0,-5.011806E0,7.3008223E0,3.336745E-1,3.2210424E0,2.0403995E-1,-6.4938396E-1,2.5229946E-1,-3.1942362E-1,-4.3510475E0,2.6554432E-2,-9.303412E-1,2.7392921E0,2.4019007E-1,-1.10379696E-1,-9.033396E-1,-5.4195903E-2,7.392785E0,-1.4271422E-1,-2.737792E0,1.9328447E-1,4.7048265E-3,5.3505834E-2,1.1932775E-1,9.63736E-2,-1.422821E-1,-7.92511E-1,1.4055578E-1,-6.158002E-2,-1.18473366E-1,-1.4044987E-1,-4.2535698E-1,3.0792858E-2,9.0754695E-2,1.8961987E0,-1.8823771E0,9.17346E0,-4.4168666E-2,2.5033167E-2,-5.269428E0,3.7789273E-1,-1.318902E-1,-9.085448E-1,-1.9818255E-1,5.400341E-1,3.5991738E0,-2.4075887E0,-6.5493226E-1,6.925646E0,3.5446978E-1,-1.1065896E-1,-3.0779969E-2,-8.840052E-2,9.706378E-1,7.919645E-1,-1.18817136E-1,-1.2956819E-1,2.4316357E-1,1.4908552E-1,-5.9061315E-2,1.8508609E-1,-7.5216584E-2,7.8278285E-1,-9.031978E-2,-1.1131758E-1,4.407153E0,3.6284503E-1,4.1433597E0,-1.6077094E-1,2.7103674E-1,2.4614753E-3,9.95341E-1,4.1698802E-2,1.823607E-2,8.5442014E-2,-1.4279891E-2,1.3362694E-1,3.0988527E-2,1.4677872E-1,-4.9330257E-2,5.166543E-2,-3.2119095E-2,1.2999328E-2,2.5420811E-2,1.5498022E-2,-8.075448E-3],"categories":[],"categories_nodes":[],"categories_segments":[],"categories_sizes":[],"default_left":[0,0,0,0,0,0,0,0,0,0,0,0,0,0,0,0,0,0,0,0,0,0,0,0,0,0,0,0,0,0,0,0,0,0,0,0,0,0,0,0,0,0,0,0,0,0,0,0,0,0,0,0,0,0,0,0,0,0,0,0,0,0,0,0,0,0,0,0,0,0,0,0,0,0,0,0,0,0,0,0,0,0,0,0,0,0,0,0,0,0,0,0,0,0,0,0,0,0,0,0,0,0,0,0,0],"id":1,"left_children":[1,3,5,7,9,11,13,15,17,-1,19,21,23,25,27,29,31,-1,33,35,37,39,-1,41,-1,43,-1,45,47,-1,49,51,-1,-1,53,-1,55,-1,57,-1,-1,-1,-1,-1,-1,59,-1,-1,-1,-1,61,-1,-1,63,65,67,-1,-1,69,71,-1,73,75,77,79,81,83,85,-1,-1,-1,-1,87,89,-1,-1,91,-1,-1,-1,-1,93,-1,-1,95,-1,97,99,-1,-1,101,103,-1,-1,-1,-1,-1,-1,-1,-1,-1,-1,-1,-1,-1],"loss_changes":[1.0932545E3,3.7992288E2,8.208449E2,5.835453E2,4.2356238E2,3.5821362E2,5.7215607E2,4.7359348E2,1.0909247E2,0E0,8.975316E2,2.5359985E1,2.3345233E2,7.4705853E2,1.2804193E2,1.8034567E2,2.9909113E2,0E0,1.8401743E2,5.805953E2,1.2682825E2,6.3079224E1,0E0,1.8446548E1,0E0,3.8081265E2,0E0,1.0894125E2,5.3897705E0,0E0,2.7696014E2,2.801641E1,0E0,0E0,7.145966E1,0E0,2.5587646E2,0E0,1.6652338E2,0E0,0E0,0E0,0E0,0E0,0E0,1.9849348E2,0E0,0E0,0E0,0E0,9.157243E0,0E0,0E0,1.4186338E1,1.0765114E1,1.18232605E2,0E0,0E0,2.068451E0,7.467539E1,0E0,2.3443102E2,1.6467409E2,1.3815715E2,1.5202664E2,8.995441E1,1.9360818E2,2.7251227E2,0E0,0E0,0E0,0E0,3.2793042E2,2.7329159E0,0E0,0E0,7.495927E0,0E0,0E0,0E0,0E0,3.3559353E1,0E0,0E0,1.6029175E1,0E0,2.2540273E2,9.05814E1,0E0,0E0,7.7046967E-1,1.4620236E1,0E0,0E0,0E0,0E0,0E0,0E0,0E0,0E0,0E0,0E0,0E0,0E0,0E0],"parents":[2147483647,0,0,1,1,2,2,3,3,4,4,5,5,6,6,7,7,8,8,10,10,11,11,12,12,13,13,14,14,15,15,16,16,18,18,19,19,20,20,21,21,23,23,25,25,27,27,28,28,30,30,31,31,34,34,36,36,38,38,45,45,50,50,53,53,54,54,55,55,58,58,59,59,61,61,62,62,63,63,64,64,65,65,66,66,67,67,72,72,73,73,76,76,81,81,84,84,86,86,87,87,90,90,91,91],"right_children":[2,4,6,8,10,12,14,16,18,-1,20,22,24,26,28,30,32,-1,34,36,38,40,-1,42,-1,44,-1,46,48,-1,50,52,-1,-1,54,-1,56,-1,58,-1,-1,-1,-1,-1,-1,60,-1,-1,-1,-1,62,-1,-1,64,66,68,-1,-1,70,72,-1,74,76,78,80,82,84,86,-1,-1,-1,-1,88,90,-1,-1,92,-1,-1,-1,-1,94,-1,-1,96,-1,98,100,-1,-1,102,104,-1,-1,-1,-1,-1,-1,-1,-1,-1,-1,-1,-1,-1],"split_conditions":[5.152147E-1,6.866015E-1,-5.901441E-1,-3.6098693E-2,-8.981415E-1,6.5019786E-1,8.2484734E-1,-2.0139183E-1,2.9598814E-2,-1.3801949E-1,-7.4122983E-1,5.349666E-1,1.7932999E0,6.312178E-1,2.2697423E0,-7.725363E-1,3.2181704E-1,-1.3384135E-1,-7.725363E-1,8.689937E-1,1.051386E0,-7.725363E-1,3.336745E-1,-7.725363E-1,2.0403995E-1,5.042093E-1,2.5229946E-1,1.051386E0,3.2181704E-1,2.6554432E-2,-4.0775186E-1,-7.725363E-1,2.4019007E-1,-1.10379696E-1,-4.0775186E-1,-5.4195903E-2,1.5985626E0,-1.4271422E-1,1.4161704E0,1.9328447E-1,4.7048265E-3,5.3505834E-2,1.1932775E-1,9.63736E-2,-1.422821E-1,3.2181704E-1,1.4055578E-1,-6.158002E-2,-1.18473366E-1,-1.4044987E-1,1.3942483E-1,3.0792858E-2,9.0754695E-2,-5.901441E-1,3.2181704E-1,1.4161704E0,-4.4168666E-2,2.5033167E-2,6.158368E0,-4.0775186E-1,-1.318902E-1,-5.500781E-1,-9.0693593E-1,5.766107E-2,1.4669527E-1,3.4583914E-1,2.2194208E-1,-8.707156E-1,3.5446978E-1,-1.1065896E-1,-3.0779969E-2,-8.840052E-2,2.0985591E0,-2.2535962E-1,-1.18817136E-1,-1.2956819E-1,5.042093E-1,1.4908552E-1,-5.9061315E-2,1.8508609E-1,-7.5216584E-2,-4.2967398E-2,-9.031978E-2,-1.1131758E-1,5.042093E-1,3.6284503E-1,1.2337781E0,-4.2967398E-2,2.7103674E-1,2.4614753E-3,-4.2967398E-2,3.2181704E-1,1.823607E-2,8.5442014E-2,-1.4279891E-2,1.3362694E-1,3.0988527E-2,1.4677872E-1,-4.9330257E-2,5.166543E-2,-3.2119095E-2,1.2999328E-2,2.5420811E-2,1.5498022E-2,-8.075448E-3],"split_indices":[1,4,4,1,1,1,1,1,1,0,1,1,1,1,1,4,4,0,4,4,4,4,0,4,0,4,0,4,4,0,4,4,0,0,4,0,4,0,4,0,0,0,0,0,0,4,0,0,0,0,4,0,0,4,4,4,0,0,4,4,0,1,1,1,1,1,1,1,0,0,0,0,1,4,0,0,4,0,0,0,0,4,0,0,4,0,4,4,0,0,4,4,0,0,0,0,0,0,0,0,0,0,0,0,0],"split_type":[0,0,0,0,0,0,0,0,0,0,0,0,0,0,0,0,0,0,0,0,0,0,0,0,0,0,0,0,0,0,0,0,0,0,0,0,0,0,0,0,0,0,0,0,0,0,0,0,0,0,0,0,0,0,0,0,0,0,0,0,0,0,0,0,0,0,0,0,0,0,0,0,0,0,0,0,0,0,0,0,0,0,0,0,0,0,0,0,0,0,0,0,0,0,0,0,0,0,0,0,0,0,0,0,0],"sum_hessian":[3.69E2,2.81E2,8.8E1,2.11E2,7E1,3.3E1,5.5E1,1.66E2,4.5E1,1.9E1,5.1E1,6E0,2.7E1,1.6E1,3.9E1,1.47E2,1.9E1,8E0,3.7E1,2.2E1,2.9E1,3E0,3E0,2.1E1,6E0,9E0,7E0,2.9E1,1E1,5.7E1,9E1,1.5E1,4E0,1.3E1,2.4E1,9E0,1.3E1,1.4E1,1.5E1,2E0,1E0,1.9E1,2E0,5E0,4E0,2.8E1,1E0,7E0,3E0,6E0,8.4E1,1E1,5E0,6E0,1.8E1,1.1E1,2E0,6E0,9E0,2.4E1,4E0,2.6E1,5.8E1,4E0,2E0,1.2E1,6E0,1E1,1E0,8E0,1E0,2E0,2.2E1,2E1,6E0,3E0,5.5E1,1E0,3E0,1E0,1E0,5E0,7E0,3E0,3E0,1E0,9E0,2.1E1,1E0,5E0,1.5E1,4.3E1,1.2E1,1E0,4E0,1E0,2E0,6E0,3E0,7E0,1.4E1,8E0,7E0,1.6E1,2.7E1],"tree_param":{"num_deleted":"0","num_feature":"8","num_nodes":"105","size_leaf_vector":"1"}},{"base_weights":[1.2966558E-1,-1.1806948E-1,7.466557E0,7.710476E-1,-2.3767338E0,1.7521248E1,2.3055239E0,9.493566E0,2.2640625E-1,1.8752162E-1,-2.9549375E0,7.9484984E-2,4.1918474E-1,5.172083E0,-1.04608335E-1,1.1743469E1,5.3532248E0,-6.169534E-1,1.7176523E0,-1.1151475E0,-4.6308236E0,-5.3368032E-2,6.908023E0,-4.789092E-2,3.230755E-1,2.446937E-1,5.9455675E-3,-2.156132E0,1.0479853E1,3.040101E0,-3.9218454E0,7.7279633E-1,-1.4828734E-1,-6.1019673E0,-2.8006346E0,1.6942366E0,2.3551594E-1,-1.9530495E0,-1.13962896E-1,3.469642E-1,-1.0600613E0,5.167319E0,-2.1227728E-1,-4.7137156E0,-1.1167872E0,-1.963754E0,2.2084159E-1,-1.4596471E-1,-2.3934214E0,-5.0563283E0,6.8746467E0,-4.7433296E-1,8.4032506E-2,-2.4952035E0,-6.27042E-1,-4.0124545E0,2.0327842E-1,6.297152E0,3.576686E0,-1.2614077E-1,4.5188102E-1,-2.1879363E0,-6.0630517E0,7.160068E-1,-5.205984E-2,-8.7034374E-1,-1.0989864E-1,5.8234274E-2,-9.842758E-2,-3.287159E0,-1.1574013E-1,3.4348083E-1,-1.111652E-1,7.281847E-2,-8.729812E-2,-1.0749266E0,-4.58593E0,-1.13556355E-1,6.4146787E-1,-1.16586655E-1,3.0268833E-1,4.4062093E-1,3.6216566E-1,-8.475554E-1,6.6150665E0,-1.1185714E0,2.5160408E0,4.1176736E-1,-1.00101486E-1,-1.3083935E-1,-2.9037174E-2,-4.0909615E-3,2.594801E-2,-2.0683403E0,1.6893403E-1,-7.6874524E-2,3.9421222E0,-1.16096124E-1,1.4825901E-1,-4.3596706E0,-3.609309E-1,-1.105809E0,-1.334011E-1,4.4293184E-2,3.147941E-2,-5.944583E-3,1.5184543E-2,-3.626654E-2,2.0889882E-2,-8.993428E-2,2.5329455E-3,3.1305237E0,2.6080838E-1,4.1129544E-2,-3.823759E0,-1.8794429E-2,1.02855764E-1,-4.0713277E-2,3.7749335E-2,-4.865721E0,3.4433665E0,-3.6912415E-2,1.5725088E-1,9.753169E-2,-1.1781179E-1,1.1811295E-2,-4.880166E-2,-6.0454234E-2,2.7423138E-3,-4.6964712E-2,2.7234785E-2,-5.4727826E-2,8.3698235E-2,-1.18052356E-1,-3.7326258E-2,-1.7013168E-2,-1.2537801E-1,2.43364E-2,8.0250226E-2],"categories":[],"categories_nodes":[],"categories_segments":[],"categories_sizes":[],"default_left":[0,0,0,0,0,0,0,0,0,0,0,0,0,0,0,0,0,0,0,0,0,0,0,0,0,0,0,0,0,0,0,0,0,0,0,0,0,0,0,0,0,0,0,0,0,0,0,0,0,0,0,0,0,0,0,0,0,0,0,0,0,0,0,0,0,0,0,0,0,0,0,0,0,0,0,0,0,0,0,0,0,0,0,0,0,0,0,0,0,0,0,0,0,0,0,0,0,0,0,0,0,0,0,0,0,0,0,0,0,0,0,0,0,0,0,0,0,0,0,0,0,0,0,0,0,0,0,0,0,0,0,0,0,0,0,0,0,0,0],"id":2,"left_children":[1,3,5,7,9,11,13,15,17,-1,19,-1,-1,21,-1,23,25,27,29,31,33,-1,35,-1,-1,-1,-1,37,39,41,43,45,-1,47,49,51,-1,53,-1,-1,55,57,59,61,63,65,-1,-1,67,69,71,73,-1,75,77,79,-1,81,83,-1,85,87,89,91,-1,93,-1,95,-1,97,-1,-1,-1,-1,-1,99,101,-1,103,-1,105,107,-1,109,111,113,115,117,-1,-1,-1,-1,-1,119,-1,-1,121,-1,-1,123,125,127,-1,-1,129,-1,-1,-1,-1,-1,-1,131,-1,-1,133,-1,-1,-1,-1,135,137,-1,-1,-1,-1,-1,-1,-1,-1,-1,-1,-1,-1,-1,-1,-1,-1,-1,-1],"loss_changes":[6.6222E2,7.103491E2,5.8116565E2,1.2042542E3,7.038077E2,1.0667297E2,2.1660664E2,8.222009E1,3.026656E2,0E0,2.910387E2,0E0,0E0,1.1050325E2,0E0,5.897545E2,2.3679341E2,2.6489434E3,6.588261E2,5.6291846E2,1.1897388E2,0E0,1.3178336E2,0E0,0E0,0E0,0E0,8.773981E1,1.5145701E3,4.9151007E2,3.280121E1,1.0564945E3,0E0,1.0361865E2,5.528893E2,2.2999722E1,0E0,9.197696E1,0E0,0E0,2.9849115E2,5.682715E1,1.1954894E2,3.2025787E1,1.50245285E1,1.1114046E2,0E0,0E0,4.9219612E1,8.604065E0,7.13364E2,6.0734104E1,0E0,2.684522E2,2.525086E2,5.5684647E1,0E0,1.6460359E3,2.7255234E2,0E0,8.973371E1,4.5064804E1,8.897949E0,1.7909371E0,0E0,2.8249033E2,0E0,8.78956E1,0E0,2.515466E2,0E0,0E0,0E0,0E0,0E0,1.296857E2,2.6099786E2,0E0,3.0549414E1,0E0,9.973663E-1,2.4707182E1,0E0,3.215222E1,2.2969293E2,1.4364386E2,1.1237075E2,1.7543547E1,0E0,0E0,0E0,0E0,0E0,3.5274072E2,0E0,0E0,7.88623E1,0E0,0E0,1.6583897E2,9.407939E1,3.5873238E1,0E0,0E0,7.8536705E1,0E0,0E0,0E0,0E0,0E0,0E0,6.536187E1,0E0,0E0,2.6301834E1,0E0,0E0,0E0,0E0,7.914502E1,5.616844E0,0E0,0E0,0E0,0E0,0E0,0E0,0E0,0E0,0E0,0E0,0E0,0E0,0E0,0E0,0E0,0E0,0E0,0E0],"parents":[2147483647,0,0,1,1,2,2,3,3,4,4,5,5,6,6,7,7,8,8,10,10,13,13,15,15,16,16,17,17,18,18,19,19,20,20,22,22,27,27,28,28,29,29,30,30,31,31,33,33,34,34,35,35,37,37,40,40,41,41,42,42,43,43,44,44,45,45,48,48,49,49,50,50,51,51,53,53,54,54,55,55,57,57,58,58,60,60,61,61,62,62,63,63,65,65,67,67,69,69,75,75,76,76,78,78,80,80,81,81,83,83,84,84,85,85,86,86,87,87,93,93,96,96,99,99,100,100,101,101,104,104,111,111,114,114,119,119,120,120],"right_children":[2,4,6,8,10,12,14,16,18,-1,20,-1,-1,22,-1,24,26,28,30,32,34,-1,36,-1,-1,-1,-1,38,40,42,44,46,-1,48,50,52,-1,54,-1,-1,56,58,60,62,64,66,-1,-1,68,70,72,74,-1,76,78,80,-1,82,84,-1,86,88,90,92,-1,94,-1,96,-1,98,-1,-1,-1,-1,-1,100,102,-1,104,-1,106,108,-1,110,112,114,116,118,-1,-1,-1,-1,-1,120,-1,-1,122,-1,-1,124,126,128,-1,-1,130,-1,-1,-1,-1,-1,-1,132,-1,-1,134,-1,-1,-1,-1,136,138,-1,-1,-1,-1,-1,-1,-1,-1,-1,-1,-1,-1,-1,-1,-1,-1,-1,-1],"split_conditions":[1.7401869E0,5.968424E-1,1.8285832E0,-1.2634816E0,-1.7130077E0,-1.0387186E0,3.0985963E-1,-1.7130077E0,6.470042E-1,1.8752162E-1,-3.644295E-1,7.9484984E-2,4.1918474E-1,-1.3758632E0,-1.04608335E-1,-3.6196688E-1,-6.045727E-1,4.084357E-1,-7.5233E-1,1.3194981E0,1.0381786E0,-5.3368032E-2,2.2073321E0,-4.789092E-2,3.230755E-1,2.446937E-1,5.9455675E-3,4.2224115E-1,-3.644295E-1,1.4336748E0,1.8832009E0,-4.7681102E-1,-1.4828734E-1,5.3462267E-1,5.3462267E-1,-4.7681102E-1,2.3551594E-1,8.509658E-2,-1.13962896E-1,3.469642E-1,-1.3966645E-1,8.717672E-1,1.5460564E0,9.8414874E-1,3.1193976E0,-5.891925E-1,2.2084159E-1,-1.4596471E-1,9.8414874E-1,-2.52048E-1,9.8414874E-1,-9.2633706E-1,8.4032506E-2,-3.0319527E-2,-1.1465645E0,4.716681E-1,2.0327842E-1,-9.826765E-1,-1.354328E0,-1.2614077E-1,-1.2362512E0,2.1680291E-1,4.716681E-1,-6.219939E-1,-5.205984E-2,1.2691703E0,-1.0989864E-1,6.568486E-1,-9.842758E-2,1.2691703E0,-1.1574013E-1,3.4348083E-1,-1.111652E-1,7.281847E-2,-8.729812E-2,-7.01574E-1,-4.7681102E-1,-1.13556355E-1,1.974781E-1,-1.16586655E-1,-2.52048E-1,7.593857E-1,3.6216566E-1,1.0965302E0,1.3212934E0,1.6584378E0,1.9955825E0,8.717672E-1,-1.00101486E-1,-1.3083935E-1,-2.9037174E-2,-4.0909615E-3,2.594801E-2,-8.1395555E-1,1.6893403E-1,-7.6874524E-2,8.717672E-1,-1.16096124E-1,1.4825901E-1,-9.2633706E-1,-1.3966645E-1,-7.01574E-1,-1.334011E-1,4.4293184E-2,3.0985963E-1,-5.944583E-3,1.5184543E-2,-3.626654E-2,2.0889882E-2,-8.993428E-2,2.5329455E-3,9.8414874E-1,2.6080838E-1,4.1129544E-2,1.9955825E0,-1.8794429E-2,1.02855764E-1,-4.0713277E-2,3.7749335E-2,-1.2634816E0,-7.01574E-1,-3.6912415E-2,1.5725088E-1,9.753169E-2,-1.1781179E-1,1.1811295E-2,-4.880166E-2,-6.0454234E-2,2.7423138E-3,-4.6964712E-2,2.7234785E-2,-5.4727826E-2,8.3698235E-2,-1.18052356E-1,-3.7326258E-2,-1.7013168E-2,-1.2537801E-1,2.43364E-2,8.0250226E-2],"split_indices":[6,6,6,0,0,0,0,0,0,0,0,0,0,0,0,6,6,6,6,6,6,0,6,0,0,0,0,0,0,0,0,0,0,0,0,0,0,0,0,0,0,0,0,0,0,0,0,0,0,0,0,0,0,6,6,6,0,6,6,0,6,6,6,6,0,6,0,6,0,6,0,0,0,0,0,0,0,0,0,0,0,0,0,0,0,0,0,0,0,0,0,0,0,0,0,0,0,0,0,0,0,0,0,0,0,0,0,0,0,0,0,0,0,0,0,0,0,0,0,0,0,0,0,0,0,0,0,0,0,0,0,0,0,0,0,0,0,0,0],"split_type":[0,0,0,0,0,0,0,0,0,0,0,0,0,0,0,0,0,0,0,0,0,0,0,0,0,0,0,0,0,0,0,0,0,0,0,0,0,0,0,0,0,0,0,0,0,0,0,0,0,0,0,0,0,0,0,0,0,0,0,0,0,0,0,0,0,0,0,0,0,0,0,0,0,0,0,0,0,0,0,0,0,0,0,0,0,0,0,0,0,0,0,0,0,0,0,0,0,0,0,0,0,0,0,0,0,0,0,0,0,0,0,0,0,0,0,0,0,0,0,0,0,0,0,0,0,0,0,0,0,0,0,0,0,0,0,0,0,0,0],"sum_hessian":[3.63E2,3.52E2,1.1E1,2.53E2,9.9E1,3E0,8E0,1.4E1,2.39E2,4E0,9.5E1,1E0,2E0,6E0,2E0,8E0,6E0,1.53E2,8.6E1,4.6E1,4.9E1,1E0,5E0,2E0,6E0,2E0,4E0,1.35E2,1.8E1,7E1,1.6E1,3.6E1,1E1,2.6E1,2.3E1,3E0,2E0,1.29E2,6E0,1.1E1,7E0,4.2E1,2.8E1,1.2E1,4E0,2.9E1,7E0,1.9E1,7E0,1.9E1,4E0,2E0,1E0,9.1E1,3.8E1,6E0,1E0,2.3E1,1.9E1,2E0,2.6E1,5E0,7E0,2E0,2E0,2.3E1,6E0,4E0,3E0,7E0,1.2E1,2E0,2E0,1E0,1E0,5.5E1,3.6E1,7E0,3.1E1,4E0,2E0,1.6E1,7E0,8E0,1.1E1,1.5E1,1.1E1,3E0,2E0,6E0,1E0,1E0,1E0,2.1E1,2E0,2E0,2E0,6E0,1E0,9E0,4.6E1,1.4E1,2.2E1,8E0,2.3E1,1E0,1E0,3E0,1.3E1,1E0,7E0,8E0,3E0,7E0,8E0,5E0,6E0,1E0,2E0,1.4E1,7E0,1E0,1E0,1E0,8E0,3.2E1,1.4E1,5E0,9E0,8E0,1.5E1,1E0,7E0,3E0,5E0,4E0,1E1,2E0,5E0],"tree_param":{"num_deleted":"0","num_feature":"8","num_nodes":"139","size_leaf_vector":"1"}},{"base_weights":[-3.0998382E-1,-3.9780412E0,2.2167346E-1,1.5522411E-1,-4.6275845E0,1.1665961E1,-8.7673835E-2,-5.0420856E0,-2.34793E0,2.197745E0,1.614506E1,-7.572861E-1,1.6538851E0,-3.085218E0,-1.393186E-1,-3.6812708E0,1.5531698E0,4.5568504E0,-4.8880633E-2,4.9872673E-1,9.770778E0,-1.7962704E0,6.288843E0,6.2917852E0,2.0030959E-1,-1.4878217E0,-6.132248E0,3.1755824E0,-1.4126514E-1,1.2712902E-1,-7.9716474E-2,1.6706398E-1,-2.7960131E-2,1.4348192E1,-8.506459E-2,-5.889717E-1,-4.6547976E0,1.1873546E1,3.505806E0,1.4742402E1,3.0065043E0,-2.4482744E0,8.907072E-1,-6.3714614E0,2.751377E-1,-3.436636E-2,-1.3236511E-1,1.4110255E-1,-4.416372E-2,-4.5299158E-2,4.1559562E-1,2.7571108E0,-9.2982024E-1,-3.4126809E0,-5.2174635E0,1.2933595E1,2.567488E-2,5.5093465E0,-1.5683275E0,4.3686214E-3,3.5332713E-1,-4.9521706E-1,2.3346213E-1,-1.0179259E-1,1.2780309E0,-1.2841912E-1,1.5528152E0,-6.904734E0,-5.882012E-3,-3.4557073E0,9.510715E0,-1.299289E-1,-5.794436E-1,-4.245192E0,1.4722951E-1,-5.9670076E0,-3.5491116E0,8.236865E0,5.2671325E-1,3.1913428E0,4.2155367E-1,-3.0898492E0,1.4892421E0,-1.2661806E-1,1.098286E0,8.863783E0,-1.32053E-1,3.989487E0,-1.1259754E0,-1.5261494E-1,2.976799E-3,2.3692033E-1,-1.4436962E-1,1.4141949E1,-2.5321519E-2,-9.546778E-1,6.1252737E0,-6.064233E0,-1.1793162E0,-4.4768815E0,-1.3793387E-1,-5.842187E0,4.266734E0,3.663606E0,4.1886684E-1,-1.6131146E0,6.5934267E0,-8.637641E-2,1.7927792E-2,-9.7332716E-2,1.4279379E-1,5.7068653E0,-3.677828E0,4.4922948E-2,2.089729E-1,7.470991E0,5.0066483E-1,7.217364E0,-2.946477E0,6.9457636E0,4.4428492E-1,4.4686824E-2,-3.088032E0,1.0181304E1,2.5997157E0,-1.2391788E0,-1.3694492E-1,1.7419036E-1,-5.181669E0,-5.5215807E0,1.678247E-2,-5.7005703E-2,-1.3124925E-1,1.5263081E0,1.285681E-1,5.8569007E0,-9.765087E-2,4.263168E0,-9.589256E-2,1.4767041E1,1.8475233E-1,-8.123875E-2,1.1653877E1,-1.2952962E0,-1.1481055E-1,2.5627863E0,5.0585943E-1,1.8326352E0,-7.358181E-2,2.032266E0,2.032518E-1,-4.001924E0,5.2104974E0,3.2531458E-1,-2.6320068E-2,1.3598607E-1,-5.6286925E-3,7.774334E-3,-7.465446E-2,-6.481467E-2,3.7561238E-1,2.993523E-1,-8.0512114E-2,6.2138848E-2,-9.996641E-2,-3.2579005E-2,-1.2665127E-1,2.1281193E-3,-1.5341826E-1,1.2253831E-1,-7.594575E-2,2.745779E-2,1.3039683E-1,-7.6047584E-2,2.0618638E-1,4.0612948E-1,1.3109764E-1,2.1314338E-1,-7.819829E-2,2.6486483E-1,7.415495E-2,-4.69045E-2,-4.108465E-3,-6.2102317E-3,1.7056775E-1,-5.3474344E-2,1.3646443E-1,-1.04729995E-1,1.6676757E-1,-1.3954437E-2,-1.01371445E-1,-7.647276E-2,2.3553005E-1],"categories":[],"categories_nodes":[],"categories_segments":[],"categories_sizes":[],"default_left":[0,0,0,0,0,0,0,0,0,0,0,0,0,0,0,0,0,0,0,0,0,0,0,0,0,0,0,0,0,0,0,0,0,0,0,0,0,0,0,0,0,0,0,0,0,0,0,0,0,0,0,0,0,0,0,0,0,0,0,0,0,0,0,0,0,0,0,0,0,0,0,0,0,0,0,0,0,0,0,0,0,0,0,0,0,0,0,0,0,0,0,0,0,0,0,0,0,0,0,0,0,0,0,0,0,0,0,0,0,0,0,0,0,0,0,0,0,0,0,0,0,0,0,0,0,0,0,0,0,0,0,0,0,0,0,0,0,0,0,0,0,0,0,0,0,0,0,0,0,0,0,0,0,0,0,0,0,0,0,0,0,0,0,0,0,0,0,0,0,0,0,0,0,0,0,0,0,0,0,0,0,0,0,0,0,0,0,0,0,0,0,0,0],"id":3,"left_children":[1,3,5,-1,7,9,11,13,15,17,19,21,23,25,-1,27,29,31,-1,-1,33,35,37,39,41,43,45,47,-1,-1,-1,-1,-1,49,-1,51,53,55,57,59,61,63,65,67,-1,-1,-1,-1,-1,-1,-1,69,71,73,75,77,-1,79,81,-1,-1,83,-1,-1,85,-1,87,89,-1,91,93,-1,95,97,-1,99,101,103,-1,105,-1,107,109,-1,111,113,-1,115,117,-1,-1,-1,-1,119,-1,121,123,125,127,129,-1,131,133,135,-1,137,139,-1,-1,-1,-1,141,143,-1,-1,145,147,149,151,153,-1,155,157,159,161,163,-1,-1,165,167,-1,-1,-1,169,-1,171,-1,173,-1,175,177,-1,179,181,-1,183,-1,185,-1,187,-1,189,191,-1,-1,-1,-1,-1,-1,-1,-1,-1,-1,-1,-1,-1,-1,-1,-1,-1,-1,-1,-1,-1,-1,-1,-1,-1,-1,-1,-1,-1,-1,-1,-1,-1,-1,-1,-1,-1,-1,-1,-1],"loss_changes":[7.533563E2,4.051938E2,1.1971742E3,0E0,3.366211E1,3.4550635E2,3.8584644E2,1.2710504E2,5.1439182E1,5.2730095E1,1.1134192E2,1.7591104E3,6.184131E2,9.351555E1,0E0,1.8019644E2,9.995762E1,7.606952E1,0E0,0E0,3.694726E2,7.1846655E2,4.427976E2,5.681111E2,1.3160866E2,1.1881862E3,4.566864E0,7.459219E1,0E0,0E0,0E0,0E0,0E0,4.590697E2,0E0,1.7098831E2,2.7236816E1,9.6191284E1,2.304169E2,2.4708508E2,5.180843E2,1.5250743E2,2.8443265E2,3.6739014E1,0E0,0E0,0E0,0E0,0E0,0E0,0E0,6.128085E2,2.5972318E2,2.2456015E2,3.2085815E1,3.6498743E2,0E0,5.132512E2,3.6241276E1,0E0,0E0,1.2621729E2,0E0,0E0,4.6516016E2,0E0,3.493388E2,5.6840942E1,0E0,5.3181683E2,3.604922E2,0E0,3.270387E2,1.1012186E2,0E0,9.477722E0,2.8947696E2,3.900138E2,0E0,2.5311537E2,0E0,2.748919E1,1.3542094E2,0E0,2.58811E2,1.9781097E1,0E0,3.3551672E2,4.125359E2,0E0,0E0,0E0,0E0,1.4577448E2,0E0,2.6001483E2,7.484674E1,4.110077E1,3.9286652E2,7.581171E1,0E0,8.810028E0,1.4272659E1,1.5507205E2,0E0,1.4739503E2,4.6374466E2,0E0,0E0,0E0,0E0,3.8536523E2,2.2303116E1,0E0,0E0,1.1575493E3,8.90211E1,5.6241516E1,2.073095E2,3.195628E2,0E0,1.8653926E2,8.849747E1,3.8949567E2,4.5574075E2,6.135584E1,0E0,0E0,1.8928848E1,1.3258551E2,0E0,0E0,0E0,9.196525E1,0E0,9.482605E0,0E0,1.7669997E2,0E0,5.761786E1,2.9050003E2,0E0,5.0618896E0,4.029141E0,0E0,2.0636063E2,0E0,2.840422E2,0E0,1.7222675E2,0E0,6.6953186E1,2.1254889E2,0E0,0E0,0E0,0E0,0E0,0E0,0E0,0E0,0E0,0E0,0E0,0E0,0E0,0E0,0E0,0E0,0E0,0E0,0E0,0E0,0E0,0E0,0E0,0E0,0E0,0E0,0E0,0E0,0E0,0E0,0E0,0E0,0E0,0E0,0E0,0E0,0E0,0E0,0E0,0E0],"parents":[2147483647,0,0,1,1,2,2,4,4,5,5,6,6,7,7,8,8,9,9,10,10,11,11,12,12,13,13,15,15,16,16,17,17,20,20,21,21,22,22,23,23,24,24,25,25,26,26,27,27,33,33,35,35,36,36,37,37,38,38,39,39,40,40,41,41,42,42,43,43,51,51,52,52,53,53,54,54,55,55,57,57,58,58,61,61,64,64,66,66,67,67,69,69,70,70,72,72,73,73,75,75,76,76,77,77,79,79,81,81,82,82,84,84,85,85,87,87,88,88,93,93,95,95,96,96,97,97,98,98,99,99,101,101,102,102,103,103,105,105,106,106,111,111,112,112,115,115,116,116,117,117,118,118,119,119,121,121,122,122,123,123,124,124,125,125,128,128,129,129,133,133,135,135,137,137,139,139,140,140,142,142,143,143,145,145,147,147,149,149,151,151,152,152],"right_children":[2,4,6,-1,8,10,12,14,16,18,20,22,24,26,-1,28,30,32,-1,-1,34,36,38,40,42,44,46,48,-1,-1,-1,-1,-1,50,-1,52,54,56,58,60,62,64,66,68,-1,-1,-1,-1,-1,-1,-1,70,72,74,76,78,-1,80,82,-1,-1,84,-1,-1,86,-1,88,90,-1,92,94,-1,96,98,-1,100,102,104,-1,106,-1,108,110,-1,112,114,-1,116,118,-1,-1,-1,-1,120,-1,122,124,126,128,130,-1,132,134,136,-1,138,140,-1,-1,-1,-1,142,144,-1,-1,146,148,150,152,154,-1,156,158,160,162,164,-1,-1,166,168,-1,-1,-1,170,-1,172,-1,174,-1,176,178,-1,180,182,-1,184,-1,186,-1,188,-1,190,192,-1,-1,-1,-1,-1,-1,-1,-1,-1,-1,-1,-1,-1,-1,-1,-1,-1,-1,-1,-1,-1,-1,-1,-1,-1,-1,-1,-1,-1,-1,-1,-1,-1,-1,-1,-1,-1,-1,-1,-1],"split_conditions":[-8.869268E-1,-1.0103025E0,-8.695681E-1,1.5522411E-1,-9.0693593E-1,-8.8420177E-1,5.152147E-1,1.8765302E-1,1.0492002E0,5.70339E-1,-8.943498E-1,1.1504163E0,-1.2180209E0,-9.5219433E-1,-1.393186E-1,-9.007345E-1,-8.9677393E-1,-8.845267E-1,-4.8880633E-2,4.9872673E-1,-8.707156E-1,-1.6651542E-1,-6.079324E-1,6.5019786E-1,6.9862133E-1,-1.2654835E-1,-1.2654835E-1,4.0771392E-1,-1.4126514E-1,1.2712902E-1,-7.9716474E-2,1.6706398E-1,-2.7960131E-2,-1.20732896E-1,-8.506459E-2,-1.2930397E0,-9.5765674E-1,2.3347993E0,2.3347993E0,-1.3327305E0,-1.2709521E0,1.0290636E-1,-8.830732E-1,-1.5585841E-1,2.751377E-1,-3.436636E-2,-1.3236511E-1,1.4110255E-1,-4.416372E-2,-4.5299158E-2,4.1559562E-1,-1.5074724E0,-1.2044717E0,-1.0309446E0,2.5124845E-1,2.2859273E0,2.567488E-2,2.2611978E0,2.8371906E0,4.3686214E-3,3.5332713E-1,-1.6671468E0,2.3346213E-1,-1.0179259E-1,4.7020596E-1,-1.2841912E-1,-2.3499977E-2,-9.5579267E-1,-5.882012E-3,-8.580047E-1,-4.7986153E-1,-1.299289E-1,-2.0139183E-1,1.0540415E-1,1.4722951E-1,1.1702849E-1,2.9168135E-1,-6.5913165E-1,5.2671325E-1,-3.0409157E-1,4.2155367E-1,5.766107E-2,-5.439037E-1,-1.2661806E-1,1.4767177E0,5.371093E-1,-1.32053E-1,1.3499874E0,8.1058264E-1,-1.5261494E-1,2.976799E-3,2.3692033E-1,-1.4436962E-1,-5.7147855E-1,-2.5321519E-2,-5.1148146E-1,-1.9726543E-1,-1.0962926E-1,1.4669527E-1,2.9598814E-2,-1.3793387E-1,-7.6601095E-2,4.478348E-1,-7.790749E-1,4.1886684E-1,-5.5109024E-1,-1.722125E-1,-8.637641E-2,1.7927792E-2,-9.7332716E-2,1.4279379E-1,9.5743394E-1,2.620991E0,4.4922948E-2,2.089729E-1,1.1271784E0,3.0324502E0,7.473867E-1,2.9336805E0,-1.3674309E0,4.4428492E-1,-8.1687623E-1,-8.091122E-1,-3.4416464E-1,-1.1025217E0,-1.6011573E0,-1.3694492E-1,1.7419036E-1,-1.6671468E0,-6.9066226E-1,1.678247E-2,-5.7005703E-2,-1.3124925E-1,3.2087696E-1,1.285681E-1,1.1712487E0,-9.765087E-2,1.6314943E0,-9.589256E-2,1.3113661E0,1.1712487E0,-8.123875E-2,-1.3185791E0,-1.271033E0,-1.1481055E-1,-2.0403202E-1,5.0585943E-1,-4.3256557E-1,-7.358181E-2,1.4615023E-1,2.032518E-1,1.1130814E-1,1.8765302E-1,3.2531458E-1,-2.6320068E-2,1.3598607E-1,-5.6286925E-3,7.774334E-3,-7.465446E-2,-6.481467E-2,3.7561238E-1,2.993523E-1,-8.0512114E-2,6.2138848E-2,-9.996641E-2,-3.2579005E-2,-1.2665127E-1,2.1281193E-3,-1.5341826E-1,1.2253831E-1,-7.594575E-2,2.745779E-2,1.3039683E-1,-7.6047584E-2,2.0618638E-1,4.0612948E-1,1.3109764E-1,2.1314338E-1,-7.819829E-2,2.6486483E-1,7.415495E-2,-4.69045E-2,-4.108465E-3,-6.2102317E-3,1.7056775E-1,-5.3474344E-2,1.3646443E-1,-1.04729995E-1,1.6676757E-1,-1.3954437E-2,-1.01371445E-1,-7.647276E-2,2.3553005E-1],"split_indices":[1,1,1,0,1,1,1,5,5,5,5,5,5,1,0,1,1,1,0,0,1,1,1,1,1,5,5,5,0,0,0,0,0,5,0,5,5,5,5,5,5,5,5,5,0,0,0,0,0,0,0,5,5,5,5,5,0,5,5,0,0,5,0,0,5,0,5,1,0,1,1,0,1,1,0,1,1,1,0,1,0,1,1,0,1,1,0,1,1,0,0,0,0,1,0,1,1,1,1,1,0,1,1,1,0,1,1,0,0,0,0,1,1,0,0,1,1,1,1,5,0,5,5,5,5,5,0,0,5,5,0,0,0,5,0,5,0,5,0,5,5,0,5,5,0,5,0,5,0,5,0,5,5,0,0,0,0,0,0,0,0,0,0,0,0,0,0,0,0,0,0,0,0,0,0,0,0,0,0,0,0,0,0,0,0,0,0,0,0,0,0,0,0],"split_type":[0,0,0,0,0,0,0,0,0,0,0,0,0,0,0,0,0,0,0,0,0,0,0,0,0,0,0,0,0,0,0,0,0,0,0,0,0,0,0,0,0,0,0,0,0,0,0,0,0,0,0,0,0,0,0,0,0,0,0,0,0,0,0,0,0,0,0,0,0,0,0,0,0,0,0,0,0,0,0,0,0,0,0,0,0,0,0,0,0,0,0,0,0,0,0,0,0,0,0,0,0,0,0,0,0,0,0,0,0,0,0,0,0,0,0,0,0,0,0,0,0,0,0,0,0,0,0,0,0,0,0,0,0,0,0,0,0,0,0,0,0,0,0,0,0,0,0,0,0,0,0,0,0,0,0,0,0,0,0,0,0,0,0,0,0,0,0,0,0,0,0,0,0,0,0,0,0,0,0,0,0,0,0,0,0,0,0,0,0,0,0,0,0],"sum_hessian":[3.85E2,4.8E1,3.37E2,2E0,4.6E1,8E0,3.29E2,3.8E1,8E0,3E0,5E0,2.38E2,9.1E1,2E1,1.8E1,6E0,2E0,2E0,1E0,1E0,4E0,2.08E2,3E1,2.1E1,7E1,1.4E1,6E0,2E0,4E0,1E0,1E0,1E0,1E0,3E0,1E0,1.47E2,6.1E1,9E0,2.1E1,5E0,1.6E1,1.4E1,5.6E1,1.1E1,3E0,1E0,5E0,1E0,1E0,1E0,2E0,1.3E1,1.34E2,2.1E1,4E1,8E0,1E0,1.5E1,6E0,1E0,4E0,1.2E1,4E0,8E0,6E0,4E0,5.2E1,1E1,1E0,7E0,6E0,7E0,1.27E2,2E1,1E0,2.6E1,1.4E1,7E0,1E0,1.4E1,1E0,4E0,2E0,2E0,1E1,3E0,3E0,2.7E1,2.5E1,9E0,1E0,1E0,6E0,4E0,2E0,1.21E2,6E0,1.2E1,8E0,1.2E1,1.4E1,1.1E1,3E0,6E0,1E0,6E0,8E0,3E0,1E0,1E0,1E0,5E0,5E0,1E0,2E0,1.3E1,1.4E1,4E0,2.1E1,3E0,1E0,8.3E1,3.8E1,2E0,4E0,2E0,1E1,2E0,6E0,1E1,2E0,3E0,8E0,2E0,1E0,5E0,1E0,2E0,4E0,3E0,5E0,2E0,3E0,3E0,2E0,1.1E1,2E0,1.1E1,3E0,2E0,2E0,1.9E1,2E0,1E0,2E0,3E0,8E1,6E0,3.2E1,1E0,1E0,1E0,3E0,1E0,1E0,2E0,4E0,3E0,7E0,1E0,1E0,1E0,4E0,1E0,1E0,1E0,2E0,1E0,4E0,2E0,1E0,1E0,2E0,8E0,3E0,6E0,5E0,1E0,1E0,5E0,1.4E1,1E0,1E0],"tree_param":{"num_deleted":"0","num_feature":"8","num_nodes":"193","size_leaf_vector":"1"}},{"base_weights":[-6.823031E-2,-6.0233626E0,2.5581598E-1,-2.4101307E0,-1.3591859E-1,2.3127685E0,-1.2489134E0,-1.1377216E-1,1.6163183E0,4.1445768E-1,2.071958E0,-2.5492995E0,3.3749263E0,1.2579082E-1,-7.645059E-2,-3.6121166E0,3.4177473E0,7.152411E-2,-3.5858266E0,-1.2635653E-1,4.166824E0,1.5308309E-1,-4.6666427E0,9.481828E0,2.2491808E0,-4.478883E0,2.7054372E0,-4.877939E0,7.5738735E-2,9.251198E0,3.1422243E0,-5.976911E0,3.2189026E-1,4.8574615E0,1.9713932E1,-5.4754105E0,4.2179003E0,2.9454683E-3,-4.7604628E0,8.220997E0,-7.151687E-1,-1.2415645E-1,-4.260545E0,-9.2487484E-2,1.3252606E0,2.3045644E-1,-4.369884E-2,5.1053715E0,-2.1421616E0,-3.296571E0,-1.2631066E-1,1.6581036E1,-2.5709028E0,5.359403E-1,4.0702863E0,-1.2099464E-1,-2.9950864E0,9.305804E0,3.0062582E0,-1.2576006E-1,-3.643076E0,4.928729E0,3.381755E-1,-4.30608E0,6.6119785E0,-3.3283234E0,-1.22487284E-1,2.612115E-1,-1.4859505E-1,2.7080994E0,1.0865897E1,-3.0505764E0,7.211733E-2,-9.38478E-2,2.2601286E-2,7.882633E0,4.6266097E-1,-9.7788304E-2,-9.25104E-1,-7.9765186E-2,2.0401603E-1,2.3528445E0,-1.2561159E-1,3.5685215E0,1.4709171E1,-1.15202054E-1,3.4768586E0,1.4499208E-1,-1.04819916E-1,1.4694186E-1,2.9189503E0,-1.4018454E-1,-4.9956284E0,1.5609011E1,7.2759904E-2,-4.3793983E0,4.3960822E-1,-3.955742E0,2.8464868E0,6.4405894E0,-6.018957E-1,3.24637E-1,4.5992594E0,-5.4484344E0,-1.2973645E0,2.552004E-1,-6.591359E-2,4.829208E-2,-2.7317488E0,1.1533251E-1,-4.3508828E-2,5.539589E0,-2.2287312E0,-4.870119E-2,1.7511457E1,-6.256309E0,4.5282493E0,4.2444124E0,-5.159239E-2,2.7905485E-2,-3.2184802E-2,-1.3870518E-1,-9.509041E-1,4.9347696E-1,-1.6991414E-2,-8.418824E-2,4.332351E0,-1.3944072E-1,-5.5013485E0,-1.0724739E-1,-1.2484157E0,1.9355784E-1,1.6719118E-1,4.0382254E-1,7.9228797E0,-9.756175E-2,1.9319333E-1,7.14068E0,-5.591874E-2,-3.3053413E-2,-1.24888405E-1,3.0180318E0,-1.0626737E-1,8.320721E-2,-1.0918079E-1,1.9438829E-1,-6.484117E-2,-7.037456E-2,2.339614E-3,3.85961E-1,7.3374376E-2,-1.3361402E-1,-3.9498877E-2,3.6932746E-1,7.545599E-2,-4.8366096E-2,1.2096658E-1,-1.1661419E-1,8.4480196E-2,-1.4506923E-2,1.4675765E-1,6.775844E-2,-1.2695962E-1,-7.169148E-2,-1.3703808E-1,-7.497201E-2,3.2784164E-2,2.693611E-1,-4.801398E-2,-2.6133588E-2,3.8460802E-2,3.9897993E-2,2.237169E-1,-1.0945273E-1,5.9364785E-2,2.2571999E-1,4.4174165E-2,-4.7271332E-4,1.24619655E-1],"categories":[],"categories_nodes":[],"categories_segments":[],"categories_sizes":[],"default_left":[0,0,0,0,0,0,0,0,0,0,0,0,0,0,0,0,0,0,0,0,0,0,0,0,0,0,0,0,0,0,0,0,0,0,0,0,0,0,0,0,0,0,0,0,0,0,0,0,0,0,0,0,0,0,0,0,0,0,0,0,0,0,0,0,0,0,0,0,0,0,0,0,0,0,0,0,0,0,0,0,0,0,0,0,0,0,0,0,0,0,0,0,0,0,0,0,0,0,0,0,0,0,0,0,0,0,0,0,0,0,0,0,0,0,0,0,0,0,0,0,0,0,0,0,0,0,0,0,0,0,0,0,0,0,0,0,0,0,0,0,0,0,0,0,0,0,0,0,0,0,0,0,0,0,0,0,0,0,0,0,0,0,0,0,0,0,0,0,0,0,0,0,0,0,0,0,0,0,0],"id":4,"left_children":[1,3,5,7,-1,9,11,-1,13,-1,15,17,19,-1,-1,21,23,25,27,-1,29,-1,31,33,35,37,39,41,43,45,47,49,-1,51,53,55,57,-1,59,61,63,-1,65,-1,67,-1,-1,69,71,73,-1,75,77,-1,79,-1,81,83,85,-1,87,89,-1,91,93,95,-1,-1,97,99,101,103,-1,-1,-1,105,-1,-1,107,-1,-1,109,-1,111,113,-1,115,-1,-1,-1,117,119,121,123,125,127,-1,129,131,133,135,-1,137,139,141,-1,-1,-1,143,-1,-1,145,147,-1,149,151,153,155,-1,-1,-1,-1,157,-1,-1,-1,159,161,163,-1,165,-1,167,169,171,-1,173,175,-1,-1,-1,177,-1,-1,-1,-1,-1,-1,-1,-1,-1,-1,-1,-1,-1,-1,-1,-1,-1,-1,-1,-1,-1,-1,-1,-1,-1,-1,-1,-1,-1,-1,-1,-1,-1,-1,-1,-1,-1],"loss_changes":[7.441432E2,4.080896E1,1.1351174E3,7.295818E1,0E0,6.480822E2,1.2818508E3,0E0,9.534691E1,0E0,1.1883789E3,4.509071E2,3.8368152E2,0E0,0E0,3.873766E2,8.658827E2,5.8500507E2,5.6286707E2,0E0,2.0253235E2,0E0,8.455309E2,8.5542456E2,1.6312651E3,2.394812E1,5.882681E2,4.836743E1,1.92861E2,2.0191144E2,4.0301855E2,5.677429E0,0E0,1.3359613E3,5.555864E2,1.4889038E1,4.9820667E2,0E0,8.228882E0,2.653647E2,5.492161E2,0E0,9.094287E1,0E0,4.4971722E2,0E0,0E0,3.5880292E2,6.681537E1,3.504846E1,0E0,1.7213867E2,3.3705574E1,0E0,1.7988391E2,0E0,1.1696597E2,4.4566907E2,3.0639355E2,0E0,2.4132262E2,2.8816467E1,0E0,3.9298645E1,4.0492938E2,1.2544352E3,0E0,0E0,2.826589E2,2.616985E2,1.9846014E2,3.5257385E1,0E0,0E0,0E0,2.5047937E2,0E0,0E0,4.756878E1,0E0,0E0,5.6120327E1,0E0,1.1280991E2,4.179176E2,0E0,7.10109E2,0E0,0E0,0E0,6.0142284E1,8.562254E0,8.742343E1,4.515298E2,1.0579048E2,2.033858E2,0E0,3.548436E1,2.5296036E2,8.570807E1,4.1307617E1,0E0,1.1006047E2,2.4953842E0,1.3401381E2,0E0,0E0,0E0,1.1254468E2,0E0,0E0,2.8162958E2,9.14575E0,0E0,1.0692676E2,6.6256714E-1,5.785465E2,8.407606E1,0E0,0E0,0E0,0E0,1.4590372E2,0E0,0E0,0E0,4.8873344E1,2.3616359E2,6.565234E1,0E0,4.0906265E1,0E0,4.0139072E2,9.797528E0,1.3272485E2,0E0,1.859997E2,5.729921E1,0E0,0E0,0E0,3.824619E1,0E0,0E0,0E0,0E0,0E0,0E0,0E0,0E0,0E0,0E0,0E0,0E0,0E0,0E0,0E0,0E0,0E0,0E0,0E0,0E0,0E0,0E0,0E0,0E0,0E0,0E0,0E0,0E0,0E0,0E0,0E0,0E0,0E0,0E0,0E0,0E0,0E0],"parents":[2147483647,0,0,1,1,2,2,3,3,5,5,6,6,8,8,10,10,11,11,12,12,15,15,16,16,17,17,18,18,20,20,22,22,23,23,24,24,25,25,26,26,27,27,28,28,29,29,30,30,31,31,33,33,34,34,35,35,36,36,38,38,39,39,40,40,42,42,44,44,47,47,48,48,49,49,51,51,52,52,54,54,56,56,57,57,58,58,60,60,61,61,63,63,64,64,65,65,68,68,69,69,70,70,71,71,75,75,78,78,81,81,83,83,84,84,86,86,90,90,91,91,92,92,93,93,94,94,95,95,97,97,98,98,99,99,100,100,102,102,103,103,104,104,108,108,111,111,112,112,114,114,115,115,116,116,117,117,122,122,126,126,127,127,128,128,130,130,132,132,133,133,134,134,136,136,137,137,141,141],"right_children":[2,4,6,8,-1,10,12,-1,14,-1,16,18,20,-1,-1,22,24,26,28,-1,30,-1,32,34,36,38,40,42,44,46,48,50,-1,52,54,56,58,-1,60,62,64,-1,66,-1,68,-1,-1,70,72,74,-1,76,78,-1,80,-1,82,84,86,-1,88,90,-1,92,94,96,-1,-1,98,100,102,104,-1,-1,-1,106,-1,-1,108,-1,-1,110,-1,112,114,-1,116,-1,-1,-1,118,120,122,124,126,128,-1,130,132,134,136,-1,138,140,142,-1,-1,-1,144,-1,-1,146,148,-1,150,152,154,156,-1,-1,-1,-1,158,-1,-1,-1,160,162,164,-1,166,-1,168,170,172,-1,174,176,-1,-1,-1,178,-1,-1,-1,-1,-1,-1,-1,-1,-1,-1,-1,-1,-1,-1,-1,-1,-1,-1,-1,-1,-1,-1,-1,-1,-1,-1,-1,-1,-1,-1,-1,-1,-1,-1,-1,-1,-1],"split_conditions":[-1.5114735E0,-2.8103297E0,-1.7470822E-1,-3.5239663E0,-1.3591859E-1,-1.4555577E0,1.2184466E0,-1.1377216E-1,-8.9677393E-1,4.1445768E-1,-6.832164E-1,-7.4468595E-1,-9.6883535E-1,1.2579082E-1,-7.645059E-2,-1.0103025E0,-5.187222E-1,-8.981415E-1,6.312178E-1,-1.2635653E-1,-8.707156E-1,1.5308309E-1,-1.8276387E-1,-4.3343696E-1,-8.3621985E-1,-1.045766E-1,3.2095164E-1,1.849532E-1,-1.748506E-3,1.698469E0,1.7643359E0,-1.0428238E0,3.2189026E-1,-1.0579873E0,-2.865397E-1,-9.1014236E-1,-6.826885E-1,2.9454683E-3,1.2619428E-1,1.072398E-1,6.3607E-1,-1.2415645E-1,7.5974804E-1,-9.2487484E-2,5.3693373E-2,2.3045644E-1,-4.369884E-2,1.4629595E0,2.47276E0,-1.0603566E0,-1.2631066E-1,-1.0812066E0,-7.063816E-1,5.359403E-1,-2.2446375E-1,-1.2099464E-1,-8.7981516E-1,-7.400258E-1,-6.67051E-1,-1.2576006E-1,1.4846581E-1,2.4787778E-2,3.381755E-1,3.8113216E-1,8.346183E-1,7.455322E-1,-1.22487284E-1,2.612115E-1,3.4843567E-1,1.3487588E0,1.5823728E0,1.8614777E0,7.211733E-2,-9.38478E-2,2.2601286E-2,-5.8348536E-1,4.6266097E-1,-9.7788304E-2,-6.574086E-1,-7.9765186E-2,2.0401603E-1,-3.8029295E-1,-1.2561159E-1,7.359215E-1,-3.9597264E-1,-1.15202054E-1,-3.4850714E-1,1.4499208E-1,-1.04819916E-1,1.4694186E-1,-8.0190384E-1,-8.088704E-1,-7.957701E-1,-8.695681E-1,-7.869926E-1,-5.5725443E-1,4.3960822E-1,1.3499874E0,7.3184246E-1,-7.6133716E-1,-8.551375E-1,3.24637E-1,-7.790749E-1,-8.415566E-1,-7.596006E-1,2.552004E-1,-6.591359E-2,4.829208E-2,-5.988149E-1,1.1533251E-1,-4.3508828E-2,-7.70353E-1,-7.7461773E-1,-4.870119E-2,-6.893226E-1,-4.2727676E-1,-6.547306E-1,3.0474124E-2,-5.159239E-2,2.7905485E-2,-3.2184802E-2,-1.3870518E-1,4.3373087E-1,4.9347696E-1,-1.6991414E-2,-8.418824E-2,1.0606506E0,6.057428E-1,3.4180158E-1,-1.0724739E-1,1.6884188E-1,1.9355784E-1,4.0387753E-1,1.2426137E0,1.2426137E0,-9.756175E-2,1.3715042E0,1.6581908E0,-5.591874E-2,-3.3053413E-2,-1.24888405E-1,2.0022147E0,-1.0626737E-1,8.320721E-2,-1.0918079E-1,1.9438829E-1,-6.484117E-2,-7.037456E-2,2.339614E-3,3.85961E-1,7.3374376E-2,-1.3361402E-1,-3.9498877E-2,3.6932746E-1,7.545599E-2,-4.8366096E-2,1.2096658E-1,-1.1661419E-1,8.4480196E-2,-1.4506923E-2,1.4675765E-1,6.775844E-2,-1.2695962E-1,-7.169148E-2,-1.3703808E-1,-7.497201E-2,3.2784164E-2,2.693611E-1,-4.801398E-2,-2.6133588E-2,3.8460802E-2,3.9897993E-2,2.237169E-1,-1.0945273E-1,5.9364785E-2,2.2571999E-1,4.4174165E-2,-4.7271332E-4,1.24619655E-1],"split_indices":[2,2,2,2,0,2,2,0,1,0,1,1,1,0,0,1,1,1,1,0,1,0,2,2,2,2,2,2,2,2,2,2,0,2,2,2,2,0,2,2,2,0,2,0,2,0,0,2,2,2,0,2,2,0,2,0,2,2,2,0,2,2,0,2,2,2,0,0,2,2,2,2,0,0,0,1,0,0,1,0,0,1,0,1,1,0,1,0,0,0,1,1,1,1,1,1,0,1,1,1,1,0,1,1,1,0,0,0,2,0,0,2,2,0,2,2,2,2,0,0,0,0,2,0,0,0,2,2,2,0,2,0,2,2,2,0,2,2,0,0,0,2,0,0,0,0,0,0,0,0,0,0,0,0,0,0,0,0,0,0,0,0,0,0,0,0,0,0,0,0,0,0,0,0,0,0,0,0,0],"split_type":[0,0,0,0,0,0,0,0,0,0,0,0,0,0,0,0,0,0,0,0,0,0,0,0,0,0,0,0,0,0,0,0,0,0,0,0,0,0,0,0,0,0,0,0,0,0,0,0,0,0,0,0,0,0,0,0,0,0,0,0,0,0,0,0,0,0,0,0,0,0,0,0,0,0,0,0,0,0,0,0,0,0,0,0,0,0,0,0,0,0,0,0,0,0,0,0,0,0,0,0,0,0,0,0,0,0,0,0,0,0,0,0,0,0,0,0,0,0,0,0,0,0,0,0,0,0,0,0,0,0,0,0,0,0,0,0,0,0,0,0,0,0,0,0,0,0,0,0,0,0,0,0,0,0,0,0,0,0,0,0,0,0,0,0,0,0,0,0,0,0,0,0,0,0,0,0,0,0,0],"sum_hessian":[3.84E2,1.9E1,3.65E2,4E0,1.5E1,1.54E2,2.11E2,2E0,2E0,1E0,1.53E2,1.65E2,4.6E1,1E0,1E0,2.9E1,1.24E2,4.7E1,1.18E2,3E0,4.3E1,2E0,2.7E1,1.9E1,1.05E2,1.7E1,3E1,8.7E1,3.1E1,6E0,3.7E1,2.6E1,1E0,1.4E1,5E0,2.1E1,8.4E1,1E0,1.6E1,1.1E1,1.9E1,2.5E1,6.2E1,6E0,2.5E1,5E0,1E0,2.7E1,1E1,4E0,2.2E1,5E0,9E0,3E0,2E0,1.6E1,5E0,1.5E1,6.9E1,5E0,1.1E1,9E0,2E0,1.3E1,6E0,4.3E1,1.9E1,2E0,2.3E1,2E1,7E0,9E0,1E0,3E0,1E0,3E0,2E0,3E0,6E0,1E0,1E0,2E0,3E0,8E0,7E0,3E0,6.6E1,1E0,1E1,3E0,6E0,2E0,1.1E1,2E0,4E0,4.2E1,1E0,1E1,1.3E1,9E0,1.1E1,3E0,4E0,3E0,6E0,2E0,1E0,2E0,4E0,1E0,1E0,6E0,2E0,1E0,6E0,6E0,6E1,5E0,1E0,1E0,1E0,7E0,4E0,1E0,1E0,2E0,2E0,9E0,3.3E1,6E0,4E0,3E0,1E1,2E0,7E0,1E0,1E1,3E0,1E0,1E0,2E0,3E0,3E0,1E0,3E0,4E0,2E0,1E0,1E0,5E0,1E0,5E0,1E0,2E0,5.8E1,1E0,4E0,2E0,2E0,1E0,1E0,6E0,3E0,1.5E1,1.8E1,2E0,2E0,1E0,9E0,1E0,1E0,3E0,4E0,3E0,7E0,1E0,2E0,2E0,1E0],"tree_param":{"num_deleted":"0","num_feature":"8","num_nodes":"179","size_leaf_vector":"1"}},{"base_weights":[2.3123811E-1,-3.4601423E-1,3.728375E0,1.6332774E0,-2.372284E0,6.0498037E0,-1.2446E0,-2.3340228E0,3.3629205E0,-4.941149E0,-1.7542932E0,3.8712482E0,1.03338175E1,3.9181882E-1,-3.9044907E0,3.7190622E-1,-3.5322733E0,1.3069333E0,5.2654085E0,-1.9020698E0,-1.1856165E-1,7.733623E-1,-4.006234E0,2.7893564E-1,8.60254E-1,1.1384236E1,7.0817135E-2,-1.4312226E0,2.1329443E-1,-1.4964442E0,-1.0823002E-1,-3.8963695E0,-2.843295E-1,5.2052717E0,4.5813873E-2,8.547685E0,1.9359934E0,-9.111646E-2,2.8450417E-3,-7.151946E-1,3.7048754E-1,-4.331715E0,-2.0922484E0,-2.3713188E0,5.4572268E0,8.322144E0,3.2385525E-1,-3.8691628E0,1.2250397E0,-8.700112E-2,7.1358204E-2,-3.0605524E0,-1.297724E-1,1.2446671E-1,-2.7554862E0,2.8715837E-1,2.366019E-1,-3.602511E0,2.706513E0,1.7732628E-1,8.7548375E-2,2.6595767E0,-3.6871767E0,-2.651695E0,1.1167969E0,-6.7580186E-2,-9.418332E-2,1.4103049E-1,-3.5133626E0,-1.3745011E0,-3.0588338E0,1.922964E-1,2.9980204E0,2.6860753E-1,4.5418377E0,-1.8095762E0,-1.0876354E-1,1.4007725E-1,-1.2407355E0,-3.676896E0,-1.5912156E0,6.871735E-3,-7.258819E-2,7.390597E0,-8.904277E-2,-4.8443284E0,-2.0331922E0,2.888909E-1,1.7130139E0,1.0515242E0,1.2312624E1,-1.1668785E-1,2.6734201E-2,9.0168595E-1,-5.6080136E0,3.6834579E0,-3.2598143E0,-1.1196742E0,-4.7549634E0,-7.644316E-2,3.2657155E-1,-9.2364274E-2,-1.5741091E0,-8.8518244E-1,6.1893725E0,1.550055E0,7.155733E0,-5.3710345E-2,-6.7409104E-1,-9.778409E-2,8.2304734E-1,-1.5029103E0,-1.4377876E-1,-1.3657962E-1,8.7735295E-2,6.6522904E-2,2.0186847E-1,-3.647095E-2,-1.0802674E-1,9.7969346E-2,-4.346096E0,-8.7672824E-1,2.0373198E-1,-1.9919289E0,3.588986E0,3.2367706E-1,1.1432196E-2,6.4501443E0,-1.1137016E-1,-1.3132527E-1,-2.2507915E0,1.1582315E-1,-1.2599875E-1,-1.3136231E-2,-6.888779E-2,-7.032009E-2,3.2482825E-2,-1.07795484E-1,-4.413348E-2,-1.107497E-1,1.2178556E-1,-6.992157E-2,1.6727539E-2,1.4521283E-1,-1.1894779E-1,2.1662576E-1,1.2272779E0,1.045405E-1,-9.592798E-2,2.7376828E-1,-5.5330124E-2,-7.357631E-2,5.2998796E-2,4.3564867E-2,-3.2705482E-2,-5.1396483E-1,-1.15532145E-1,2.5575602E-1,-2.6323867E0,-1.1999319E-1,-4.4634636E-2,4.1030034E-2,-2.2735436E0,4.9720578E-2,-3.1225696E0,7.0988293E0,-2.252996E0,2.7611742E-2,1.4009571E-1,-9.256611E-2,1.650488E-2,-1.01471506E-1,1.3893579E-1,-7.421535E-2,6.0791853E-3,-8.6448416E-2,-2.2273898E-2,-2.289313E-2,-9.807948E-2,-7.3341586E-2,-2.8772255E-2,1.739974E-1,8.387844E-2,-7.892556E-2,-2.3652034E-2],"categories":[],"categories_nodes":[],"categories_segments":[],"categories_sizes":[],"default_left":[0,0,0,0,0,0,0,0,0,0,0,0,0,0,0,0,0,0,0,0,0,0,0,0,0,0,0,0,0,0,0,0,0,0,0,0,0,0,0,0,0,0,0,0,0,0,0,0,0,0,0,0,0,0,0,0,0,0,0,0,0,0,0,0,0,0,0,0,0,0,0,0,0,0,0,0,0,0,0,0,0,0,0,0,0,0,0,0,0,0,0,0,0,0,0,0,0,0,0,0,0,0,0,0,0,0,0,0,0,0,0,0,0,0,0,0,0,0,0,0,0,0,0,0,0,0,0,0,0,0,0,0,0,0,0,0,0,0,0,0,0,0,0,0,0,0,0,0,0,0,0,0,0,0,0,0,0,0,0,0,0,0,0,0,0,0,0,0,0,0,0,0,0,0,0,0,0,0,0,0,0,0,0,0,0],"id":5,"left_children":[1,3,5,7,9,11,13,15,17,19,21,23,25,27,29,-1,31,33,35,37,-1,39,41,-1,43,45,-1,47,-1,49,-1,51,53,55,57,59,61,-1,-1,63,-1,65,67,69,71,73,-1,75,77,-1,-1,79,-1,-1,81,83,-1,85,87,-1,-1,89,91,93,95,-1,-1,-1,97,99,101,-1,103,-1,105,107,-1,-1,109,111,113,-1,-1,115,-1,117,119,-1,121,123,125,-1,-1,127,129,131,133,135,137,-1,139,-1,141,143,145,147,149,-1,151,-1,153,155,-1,-1,157,-1,-1,-1,-1,-1,159,161,-1,163,165,-1,-1,167,-1,-1,169,-1,-1,-1,-1,-1,-1,-1,-1,-1,-1,-1,-1,-1,-1,-1,171,-1,-1,-1,-1,-1,-1,-1,-1,173,-1,-1,175,-1,-1,-1,177,-1,179,181,183,-1,-1,-1,-1,-1,-1,-1,-1,-1,-1,-1,-1,-1,-1,-1,-1,-1,-1],"loss_changes":[7.680768E2,1.3145454E3,6.2902014E2,1.1454722E3,2.4922058E2,3.0838208E2,7.9290115E1,1.3356154E3,4.4714844E2,8.253241E1,7.535805E2,7.7494006E2,4.8633057E1,2.3659956E2,1.7751541E1,0E0,5.6830322E1,2.7952112E2,6.396975E2,4.886688E1,0E0,1.6739552E3,3.538855E1,0E0,3.221257E2,2.448645E1,0E0,7.485221E1,0E0,7.0330185E1,0E0,7.724298E1,1.103141E2,4.4982736E2,4.3491666E2,4.7998047E0,1.3455257E2,0E0,0E0,2.1162198E2,0E0,6.859375E0,1.7692984E2,5.056793E0,6.505408E1,9.765564E1,0E0,1.0209251E1,9.189169E1,0E0,0E0,2.6340332E1,0E0,0E0,1.4393238E1,3.2923477E2,0E0,2.7967957E1,2.797693E2,0E0,0E0,4.214284E2,4.9089733E1,3.0814337E2,3.579149E2,0E0,0E0,0E0,2.7603241E1,2.9852516E1,9.43261E0,0E0,9.0440254E1,0E0,3.615663E1,2.2497559E0,0E0,0E0,4.0516922E1,1.727557E2,1.0518723E2,0E0,0E0,1.26285095E1,0E0,7.793106E0,1.7787967E2,0E0,5.544534E2,1.98728E2,1.6893756E2,0E0,0E0,5.313304E2,3.7849915E1,4.5157138E2,3.6812744E0,3.7357372E1,4.5788574E-1,0E0,1.9593225E2,0E0,2.533275E1,1.9968349E2,7.786743E1,1.1357312E2,2.220568E2,0E0,3.7738384E1,0E0,1.61987E1,6.452853E1,0E0,0E0,3.7229892E2,0E0,0E0,0E0,0E0,0E0,1.556958E1,8.5592674E1,0E0,6.723576E1,2.99406E2,0E0,0E0,1.350946E1,0E0,0E0,3.927279E1,0E0,0E0,0E0,0E0,0E0,0E0,0E0,0E0,0E0,0E0,0E0,0E0,0E0,0E0,0E0,1.3623018E2,0E0,0E0,0E0,0E0,0E0,0E0,0E0,0E0,3.7360046E1,0E0,0E0,1.8510635E1,0E0,0E0,0E0,3.622345E1,0E0,4.329651E0,8.554871E0,6.4934387E0,0E0,0E0,0E0,0E0,0E0,0E0,0E0,0E0,0E0,0E0,0E0,0E0,0E0,0E0,0E0,0E0,0E0,0E0],"parents":[2147483647,0,0,1,1,2,2,3,3,4,4,5,5,6,6,7,7,8,8,9,9,10,10,11,11,12,12,13,13,14,14,16,16,17,17,18,18,19,19,21,21,22,22,24,24,25,25,27,27,29,29,31,31,32,32,33,33,34,34,35,35,36,36,39,39,41,41,42,42,43,43,44,44,45,45,47,47,48,48,51,51,54,54,55,55,57,57,58,58,61,61,62,62,63,63,64,64,68,68,69,69,70,70,72,72,74,74,75,75,78,78,79,79,80,80,83,83,85,85,86,86,88,88,89,89,90,90,93,93,94,94,95,95,96,96,97,97,98,98,100,100,102,102,103,103,104,104,105,105,106,106,108,108,110,110,111,111,114,114,120,120,121,121,123,123,124,124,127,127,130,130,146,146,155,155,158,158,162,162,164,164,165,165,166,166],"right_children":[2,4,6,8,10,12,14,16,18,20,22,24,26,28,30,-1,32,34,36,38,-1,40,42,-1,44,46,-1,48,-1,50,-1,52,54,56,58,60,62,-1,-1,64,-1,66,68,70,72,74,-1,76,78,-1,-1,80,-1,-1,82,84,-1,86,88,-1,-1,90,92,94,96,-1,-1,-1,98,100,102,-1,104,-1,106,108,-1,-1,110,112,114,-1,-1,116,-1,118,120,-1,122,124,126,-1,-1,128,130,132,134,136,138,-1,140,-1,142,144,146,148,150,-1,152,-1,154,156,-1,-1,158,-1,-1,-1,-1,-1,160,162,-1,164,166,-1,-1,168,-1,-1,170,-1,-1,-1,-1,-1,-1,-1,-1,-1,-1,-1,-1,-1,-1,-1,172,-1,-1,-1,-1,-1,-1,-1,-1,174,-1,-1,176,-1,-1,-1,178,-1,180,182,184,-1,-1,-1,-1,-1,-1,-1,-1,-1,-1,-1,-1,-1,-1,-1,-1,-1,-1],"split_conditions":[1.1431025E0,-1.7470822E-1,1.698469E0,-8.6370385E-1,3.0474124E-2,1.4179426E0,2.0022147E0,-1.7130077E0,5.3462267E-1,-5.891925E-1,-3.644295E-1,-1.7130077E0,-4.7681102E-1,-4.7681102E-1,-9.2633706E-1,3.7190622E-1,1.9955825E0,-3.644295E-1,1.0965302E0,-7.01574E-1,-1.1856165E-1,-4.7681102E-1,5.3462267E-1,2.7893564E-1,-4.7681102E-1,-5.891925E-1,7.0817135E-2,-8.1395555E-1,2.1329443E-1,-1.3758632E0,-1.0823002E-1,1.4336748E0,2.332727E0,-7.01574E-1,8.509658E-2,9.8414874E-1,2.2203455E0,-9.111646E-2,2.8450417E-3,-7.01574E-1,3.7048754E-1,-2.52048E-1,7.593857E-1,-1.0387186E0,-3.644295E-1,-1.7130077E0,3.2385525E-1,-1.0387186E0,-7.01574E-1,-8.700112E-2,7.1358204E-2,6.470042E-1,-1.297724E-1,1.2446671E-1,2.8946345E0,-1.7130077E0,2.366019E-1,-1.3966645E-1,1.974781E-1,1.7732628E-1,8.7548375E-2,1.9955825E0,2.6698716E0,-9.2633706E-1,-5.891925E-1,-6.7580186E-2,-9.418332E-2,1.4103049E-1,9.8414874E-1,-1.2634816E0,-8.1395555E-1,1.922964E-1,-2.7284937E-2,2.6860753E-1,-9.2633706E-1,-1.2634816E0,-1.0876354E-1,1.4007725E-1,-5.891925E-1,-1.0428238E0,-1.9393711E0,6.871735E-3,-7.258819E-2,-5.6280136E-1,-8.904277E-2,-6.893226E-1,-6.154001E-1,2.888909E-1,-4.0927E-1,-6.125569E-1,-4.8177093E-1,-1.1668785E-1,2.6734201E-2,6.057428E-1,7.455322E-1,5.303987E-1,8.070352E-2,3.9487416E-1,6.763483E-1,-7.644316E-2,1.3639224E0,-9.2364274E-2,1.3639224E0,1.1611093E0,1.2317148E0,1.5823728E0,1.5117674E0,-5.3710345E-2,1.7079463E0,-9.778409E-2,1.7643359E0,3.0985963E-1,-1.4377876E-1,-1.3657962E-1,7.593857E-1,6.6522904E-2,2.0186847E-1,-3.647095E-2,-1.0802674E-1,9.7969346E-2,-2.7284937E-2,3.0985963E-1,2.0373198E-1,1.3212934E0,1.6584378E0,3.2367706E-1,1.1432196E-2,-1.7130077E0,-1.1137016E-1,-1.3132527E-1,-8.1395555E-1,1.1582315E-1,-1.2599875E-1,-1.3136231E-2,-6.888779E-2,-7.032009E-2,3.2482825E-2,-1.07795484E-1,-4.413348E-2,-1.107497E-1,1.2178556E-1,-6.992157E-2,1.6727539E-2,1.4521283E-1,-1.1894779E-1,2.1662576E-1,1.974781E-1,1.045405E-1,-9.592798E-2,2.7376828E-1,-5.5330124E-2,-7.357631E-2,5.2998796E-2,4.3564867E-2,-3.2705482E-2,-3.644295E-1,-1.15532145E-1,2.5575602E-1,1.0965302E0,-1.1999319E-1,-4.4634636E-2,4.1030034E-2,4.2224115E-1,4.9720578E-2,1.6584378E0,1.4336748E0,1.8832009E0,2.7611742E-2,1.4009571E-1,-9.256611E-2,1.650488E-2,-1.01471506E-1,1.3893579E-1,-7.421535E-2,6.0791853E-3,-8.6448416E-2,-2.2273898E-2,-2.289313E-2,-9.807948E-2,-7.3341586E-2,-2.8772255E-2,1.739974E-1,8.387844E-2,-7.892556E-2,-2.3652034E-2],"split_indices":[2,2,2,2,2,2,2,0,0,0,0,0,0,0,0,0,0,0,0,0,0,0,0,0,0,0,0,0,0,0,0,0,0,0,0,0,0,0,0,0,0,0,0,0,0,0,0,0,0,0,0,0,0,0,0,0,0,0,0,0,0,0,0,0,0,0,0,0,0,0,0,0,0,0,0,0,0,0,0,2,2,0,0,2,0,2,2,0,2,2,2,0,0,2,2,2,2,2,2,0,2,0,2,2,2,2,2,0,2,0,2,0,0,0,0,0,0,0,0,0,0,0,0,0,0,0,0,0,0,0,0,0,0,0,0,0,0,0,0,0,0,0,0,0,0,0,0,0,0,0,0,0,0,0,0,0,0,0,0,0,0,0,0,0,0,0,0,0,0,0,0,0,0,0,0,0,0,0,0,0,0,0,0,0,0],"split_type":[0,0,0,0,0,0,0,0,0,0,0,0,0,0,0,0,0,0,0,0,0,0,0,0,0,0,0,0,0,0,0,0,0,0,0,0,0,0,0,0,0,0,0,0,0,0,0,0,0,0,0,0,0,0,0,0,0,0,0,0,0,0,0,0,0,0,0,0,0,0,0,0,0,0,0,0,0,0,0,0,0,0,0,0,0,0,0,0,0,0,0,0,0,0,0,0,0,0,0,0,0,0,0,0,0,0,0,0,0,0,0,0,0,0,0,0,0,0,0,0,0,0,0,0,0,0,0,0,0,0,0,0,0,0,0,0,0,0,0,0,0,0,0,0,0,0,0,0,0,0,0,0,0,0,0,0,0,0,0,0,0,0,0,0,0,0,0,0,0,0,0,0,0,0,0,0,0,0,0,0,0,0,0,0,0],"sum_hessian":[3.79E2,3.26E2,5.3E1,1.65E2,1.61E2,3.6E1,1.7E1,5E1,1.15E2,3E1,1.31E2,2.5E1,1.1E1,1.1E1,6E0,2E0,4.8E1,5.6E1,5.9E1,8E0,2.2E1,6.2E1,6.9E1,5E0,2E1,9E0,2E0,1E1,1E0,3E0,3E0,4.3E1,5E0,1.3E1,4.3E1,2.9E1,3E1,3E0,5E0,5.8E1,4E0,5.8E1,1.1E1,1.2E1,8E0,7E0,2E0,5E0,5E0,2E0,1E0,3.4E1,9E0,1E0,4E0,8E0,5E0,1.8E1,2.5E1,2.6E1,3E0,2.7E1,3E0,2.8E1,3E1,1.9E1,3.9E1,1E0,1E1,6E0,6E0,2E0,6E0,2E0,5E0,3E0,2E0,1E0,4E0,2.3E1,1.1E1,1E0,3E0,3E0,5E0,9E0,9E0,1E0,2.4E1,2.4E1,3E0,2E0,1E0,1.3E1,1.5E1,1.9E1,1.1E1,4E0,6E0,2E0,4E0,2E0,4E0,3E0,3E0,3E0,2E0,1E0,2E0,1E0,3E0,1.5E1,8E0,2E0,9E0,2E0,1E0,2E0,7E0,2E0,7E0,1.9E1,5E0,1.1E1,1.3E1,2E0,1E0,7E0,6E0,1.1E1,4E0,1.6E1,3E0,1E0,1E1,2E0,2E0,4E0,2E0,2E0,2E0,2E0,2E0,1E0,2E0,1E0,2E0,2E0,1E0,1E0,1E0,1E0,1E0,2E0,1E0,1.3E1,2E0,1E0,8E0,3E0,4E0,6E0,1.3E1,2E0,9E0,8E0,5E0,1E0,6E0,2E0,2E0,1E0,1E0,2E0,1.1E1,3E0,5E0,1E1,3E0,6E0,3E0,4E0,4E0,1E0,4E0],"tree_param":{"num_deleted":"0","num_feature":"8","num_nodes":"185","size_leaf_vector":"1"}},{"base_weights":[8.711206E-2,3.067779E0,-6.7468643E-1,1.274697E1,2.388631E0,1.079872E0,-2.5437708E0,-1.0905713E0,4.525711E-1,8.943331E-2,5.4132648E0,3.2156208E-1,5.775796E0,-2.0082176E0,-1.1423218E-1,-8.072393E-2,4.74328E-2,3.002172E-1,-9.202539E-2,6.6998253E0,-1.0739385E-1,5.9322395E0,-1.14990816E-1,1.5364293E1,-3.44377E0,-2.345568E0,6.890781E0,-8.255254E-2,1.7146295E-1,1.0024135E1,-1.04138315E-1,3.573815E-1,-1.5884383E0,-3.2991073E0,1.5902573E0,-7.89643E-2,3.534796E-1,-1.3049731E0,-5.419754E0,-3.7196498E0,1.115905E0,2.3193389E-1,3.0079758E0,8.401082E0,1.3419203E1,3.2589805E0,-8.331129E-2,-2.5580456E0,-1.4093317E-1,-1.6100744E0,3.6935976E0,5.901529E0,-5.3303566E0,3.7693426E-3,-1.319781E-1,-4.154541E0,-1.6456109E0,-3.6751606E0,2.8418245E0,-7.138244E-2,1.2767199E-1,5.704069E0,2.603284E-1,2.5674517E0,4.7696716E-1,-1.0025891E-1,1.9974357E-1,-5.0033436E0,-8.3492917E-1,3.494507E-1,-1.05183095E-1,4.489191E-1,2.912962E0,6.7993966E-3,1.7335252E-1,-1.4596292E-1,2.4673915E-2,-3.4891548E0,-1.4011861E-1,6.393148E-1,-4.321524E0,-5.5675673E0,1.3860275E-1,4.3569216E-1,1.353449E0,8.009754E0,-9.464711E-2,-4.7118347E-2,9.992624E-2,-2.3456264E0,-1.14385866E-1,1.3604994E-1,-1.8119657E0,-1.2931623E0,1.2079143E1,-3.4169617E0,3.6863446E0,-3.8519623E0,1.9203167E-1,-1.1794546E0,1.7711961E-1,-2.837586E0,-1.19988166E-1,-3.1687994E-2,-1.1782529E-1,-1.4033622E0,4.702893E0,1.0232434E1,4.565248E0,-1.1090551E-1,3.1639524E-2,-1.849568E-1,-2.934184E0,5.3835278E0,-2.256049E0,3.6837375E-1,3.5796917E-4,7.7242506E-1,-1.1487234E-1,2.9792771E0,2.0864184E-1,-5.89932E0,-2.8457131E0,1.7320192E0,-1.062362E-1,-6.5170184E-2,-8.158543E-3,6.6186004E0,-1.2113099E-1,7.351474E0,-1.1596666E-1,6.632562E-2,2.602777E-1,-3.501138E-2,2.3284262E-1,-5.3305253E-2,1.3258277E-1,-1.2920229E-1,-1.3924522E-2,2.617856E-3,1.6172142E-1,-1.3617355E-1,-1.2452084E-2,-4.715613E-2,7.073542E-2,1.3146695E-1,3.0167557E-2,-6.887817E-2,-1.2700939E-1,6.696185E-2,-7.157838E-2,-1.2850182E-2,1.4070745E-1,-2.8435132E-2,4.8438263E-1,2.345712E-1,9.814371E-2],"categories":[],"categories_nodes":[],"categories_segments":[],"categories_sizes":[],"default_left":[0,0,0,0,0,0,0,0,0,0,0,0,0,0,0,0,0,0,0,0,0,0,0,0,0,0,0,0,0,0,0,0,0,0,0,0,0,0,0,0,0,0,0,0,0,0,0,0,0,0,0,0,0,0,0,0,0,0,0,0,0,0,0,0,0,0,0,0,0,0,0,0,0,0,0,0,0,0,0,0,0,0,0,0,0,0,0,0,0,0,0,0,0,0,0,0,0,0,0,0,0,0,0,0,0,0,0,0,0,0,0,0,0,0,0,0,0,0,0,0,0,0,0,0,0,0,0,0,0,0,0,0,0,0,0,0,0,0,0,0,0,0,0,0,0,0,0,0,0,0,0,0,0,0,0,0,0],"id":6,"left_children":[1,3,5,7,9,11,13,15,-1,17,19,21,23,25,-1,-1,-1,27,-1,29,-1,31,33,35,37,39,41,-1,-1,43,-1,-1,45,47,49,-1,-1,51,53,55,57,-1,59,61,63,65,-1,67,-1,69,71,73,75,-1,-1,77,79,81,83,-1,-1,85,-1,87,-1,-1,-1,89,91,93,-1,-1,95,-1,-1,-1,-1,97,-1,99,101,103,-1,-1,105,107,-1,-1,-1,109,-1,-1,111,113,115,117,119,121,-1,123,-1,125,-1,-1,-1,127,129,131,133,-1,-1,135,137,139,141,-1,-1,143,-1,145,-1,147,149,151,-1,-1,-1,153,-1,155,-1,-1,-1,-1,-1,-1,-1,-1,-1,-1,-1,-1,-1,-1,-1,-1,-1,-1,-1,-1,-1,-1,-1,-1,-1,-1,-1],"loss_changes":[8.6903076E2,4.8468066E2,1.0023667E3,6.922208E2,5.1348206E2,5.60605E2,2.4059595E2,3.8190453E1,0E0,4.3659534E1,4.7492468E2,3.3593097E2,1.9836191E3,3.985125E2,0E0,0E0,0E0,1.5666973E3,0E0,1.1908861E3,0E0,9.142992E2,6.991815E2,5.4900635E2,4.3926743E1,5.93047E2,5.813922E1,0E0,0E0,2.4725098E1,0E0,0E0,9.841558E1,1.0847168E2,5.7011554E2,0E0,0E0,2.2847316E2,4.0135666E1,7.403296E1,3.0625662E2,0E0,1.070925E2,1.5599048E2,6.126234E2,2.0645862E2,0E0,1.6014679E2,0E0,2.4405481E2,6.862671E2,4.1961006E1,7.1395035E1,0E0,0E0,1.1631116E2,1.05817566E2,2.334141E2,7.318821E2,0E0,0E0,3.4452866E2,0E0,5.7230686E1,0E0,0E0,0E0,1.8180603E1,1.8943616E2,4.5528043E2,0E0,0E0,2.5561954E2,0E0,0E0,0E0,0E0,3.2252594E2,0E0,1.5734848E2,4.348572E0,3.0744019E0,0E0,0E0,2.4509491E2,4.140857E1,0E0,0E0,0E0,6.947331E1,0E0,0E0,3.9497894E1,1.4529486E2,2.2144543E2,6.1501686E1,1.8618744E2,1.0829413E2,0E0,1.15358215E2,0E0,4.83762E0,0E0,0E0,0E0,5.9225995E2,3.6934247E2,7.4655945E1,2.8205048E2,0E0,0E0,1.8322186E2,9.774449E1,4.021431E1,1.3673401E2,0E0,0E0,3.259894E1,0E0,2.1258151E2,0E0,1.2531738E0,2.0106622E2,7.836673E1,0E0,0E0,0E0,8.6592615E2,0E0,5.4119934E1,0E0,0E0,0E0,0E0,0E0,0E0,0E0,0E0,0E0,0E0,0E0,0E0,0E0,0E0,0E0,0E0,0E0,0E0,0E0,0E0,0E0,0E0,0E0,0E0,0E0,0E0,0E0],"parents":[2147483647,0,0,1,1,2,2,3,3,4,4,5,5,6,6,7,7,9,9,10,10,11,11,12,12,13,13,17,17,19,19,21,21,22,22,23,23,24,24,25,25,26,26,29,29,32,32,33,33,34,34,37,37,38,38,39,39,40,40,42,42,43,43,44,44,45,45,47,47,49,49,50,50,51,51,52,52,55,55,56,56,57,57,58,58,61,61,63,63,67,67,68,68,69,69,72,72,77,77,79,79,80,80,81,81,84,84,85,85,89,89,92,92,93,93,94,94,95,95,96,96,97,97,99,99,101,101,105,105,106,106,107,107,108,108,111,111,112,112,113,113,114,114,117,117,119,119,121,121,122,122,123,123,127,127,129,129],"right_children":[2,4,6,8,10,12,14,16,-1,18,20,22,24,26,-1,-1,-1,28,-1,30,-1,32,34,36,38,40,42,-1,-1,44,-1,-1,46,48,50,-1,-1,52,54,56,58,-1,60,62,64,66,-1,68,-1,70,72,74,76,-1,-1,78,80,82,84,-1,-1,86,-1,88,-1,-1,-1,90,92,94,-1,-1,96,-1,-1,-1,-1,98,-1,100,102,104,-1,-1,106,108,-1,-1,-1,110,-1,-1,112,114,116,118,120,122,-1,124,-1,126,-1,-1,-1,128,130,132,134,-1,-1,136,138,140,142,-1,-1,144,-1,146,-1,148,150,152,-1,-1,-1,154,-1,156,-1,-1,-1,-1,-1,-1,-1,-1,-1,-1,-1,-1,-1,-1,-1,-1,-1,-1,-1,-1,-1,-1,-1,-1,-1,-1,-1],"split_conditions":[-1.0601226E0,-8.3621985E-1,-1.7470822E-1,-1.0601351E0,-1.2103213E0,1.5116259E0,7.0930827E-1,-1.1688538E0,4.525711E-1,-1.2192094E0,-1.078561E0,-8.958265E-1,1.6923865E0,6.0882187E-1,-1.1423218E-1,-8.072393E-2,4.74328E-2,1.3715042E0,-9.202539E-2,1.698469E0,-1.0739385E-1,-1.4555577E0,-7.414474E-1,-1.0603566E0,-7.831473E-1,7.455322E-1,5.6062683E-2,-8.255254E-2,1.7146295E-1,-1.0949068E0,-1.04138315E-1,3.573815E-1,-1.0559065E0,1.2117655E0,3.368876E-1,-7.89643E-2,3.534796E-1,2.1653562E0,1.7756089E0,3.344454E-1,-8.4943086E-1,2.3193389E-1,6.2727267E-1,1.0322188E0,1.0606506E0,-7.7461773E-1,-8.331129E-2,-1.5114735E0,-1.4093317E-1,-3.81786E-1,-7.229668E-1,-1.0428238E0,-1.0290818E0,3.7693426E-3,-1.319781E-1,5.1381356E-1,5.3693373E-2,1.6581908E0,7.5974804E-1,-7.138244E-2,1.2767199E-1,5.1381356E-1,2.603284E-1,2.5555867E-1,4.7696716E-1,-1.0025891E-1,1.9974357E-1,-2.8103297E0,-1.3887432E0,-4.0927E-1,-1.05183095E-1,4.489191E-1,-6.67051E-1,6.7993966E-3,1.7335252E-1,-1.4596292E-1,2.4673915E-2,5.0054544E-1,-1.4011861E-1,4.4216126E-2,4.5410693E-1,7.8486276E-1,1.3860275E-1,4.3569216E-1,1.1431025E0,1.2619428E-1,-9.464711E-2,-4.7118347E-2,9.992624E-2,-3.5239663E0,-1.14385866E-1,1.3604994E-1,-1.0428238E0,-7.106464E-1,-4.0358365E-1,-6.826885E-1,-1.8276387E-1,5.7958134E-2,1.9203167E-1,2.4787778E-2,1.7711961E-1,2.963108E-1,-1.19988166E-1,-3.1687994E-2,-1.1782529E-1,8.346183E-1,1.4449528E0,-4.0927E-1,3.9487416E-1,-1.1090551E-1,3.1639524E-2,-1.0812066E0,-9.1772413E-1,-7.400258E-1,-6.386193E-1,3.6837375E-1,3.5796917E-4,-7.106464E-1,-1.1487234E-1,-5.789127E-1,2.0864184E-1,-1.045766E-1,1.072398E-1,-2.875865E-2,-1.062362E-1,-6.5170184E-2,-8.158543E-3,8.166115E-1,-1.2113099E-1,1.2317148E0,-1.1596666E-1,6.632562E-2,2.602777E-1,-3.501138E-2,2.3284262E-1,-5.3305253E-2,1.3258277E-1,-1.2920229E-1,-1.3924522E-2,2.617856E-3,1.6172142E-1,-1.3617355E-1,-1.2452084E-2,-4.715613E-2,7.073542E-2,1.3146695E-1,3.0167557E-2,-6.887817E-2,-1.2700939E-1,6.696185E-2,-7.157838E-2,-1.2850182E-2,1.4070745E-1,-2.8435132E-2,4.8438263E-1,2.345712E-1,9.814371E-2],"split_indices":[3,2,2,3,3,3,3,3,0,3,3,3,3,3,0,0,0,2,0,2,0,2,2,2,2,2,2,0,0,3,0,0,3,3,3,0,0,3,3,3,3,0,3,2,2,2,0,2,0,2,2,2,2,0,0,2,2,2,2,0,0,2,0,2,0,0,0,2,2,2,0,0,2,0,0,0,0,2,0,2,2,2,0,0,2,2,0,0,0,2,0,0,2,2,2,2,2,2,0,2,0,2,0,0,0,2,2,2,2,0,0,2,2,2,2,0,0,2,0,2,0,2,2,2,0,0,0,2,0,2,0,0,0,0,0,0,0,0,0,0,0,0,0,0,0,0,0,0,0,0,0,0,0,0,0,0,0],"split_type":[0,0,0,0,0,0,0,0,0,0,0,0,0,0,0,0,0,0,0,0,0,0,0,0,0,0,0,0,0,0,0,0,0,0,0,0,0,0,0,0,0,0,0,0,0,0,0,0,0,0,0,0,0,0,0,0,0,0,0,0,0,0,0,0,0,0,0,0,0,0,0,0,0,0,0,0,0,0,0,0,0,0,0,0,0,0,0,0,0,0,0,0,0,0,0,0,0,0,0,0,0,0,0,0,0,0,0,0,0,0,0,0,0,0,0,0,0,0,0,0,0,0,0,0,0,0,0,0,0,0,0,0,0,0,0,0,0,0,0,0,0,0,0,0,0,0,0,0,0,0,0,0,0,0,0,0,0],"sum_hessian":[3.81E2,7.7E1,3.04E2,4E0,7.3E1,1.57E2,1.47E2,2E0,2E0,4.2E1,3.1E1,1.36E2,2.1E1,1.27E2,2E1,1E0,1E0,4.1E1,1E0,2.8E1,3E0,9E0,1.27E2,1E1,1.1E1,1.23E2,4E0,2.7E1,1.4E1,2.2E1,6E0,3E0,6E0,4.4E1,8.3E1,1E0,9E0,6E0,5E0,8.8E1,3.5E1,1E0,3E0,1.7E1,5E0,2E0,4E0,3.8E1,6E0,3.3E1,5E1,2E0,4E0,1E0,4E0,7.2E1,1.6E1,9E0,2.6E1,1E0,2E0,1.2E1,5E0,3E0,2E0,1E0,1E0,1.5E1,2.3E1,2.2E1,1.1E1,1E0,4.9E1,1E0,1E0,3E0,1E0,6E1,1.2E1,9E0,7E0,8E0,1E0,1E0,2.5E1,1E1,2E0,1E0,2E0,4E0,1.1E1,2E0,2.1E1,2E1,2E0,5E0,4.4E1,5.9E1,1E0,8E0,1E0,5E0,2E0,1E0,7E0,1.4E1,1.1E1,5E0,5E0,2E0,2E0,9E0,1.2E1,2E0,1.8E1,1E0,1E0,2E0,3E0,4.1E1,3E0,1.8E1,4.1E1,5E0,3E0,4E0,1E0,5E0,9E0,9E0,2E0,2E0,3E0,3E0,2E0,7E0,2E0,4E0,8E0,1E0,1E0,4E0,1.4E1,1E0,1E0,1.1E1,3E1,4E0,1.4E1,4E0,3.7E1,4E0,1E0,4E0,1E0,2E0,7E0],"tree_param":{"num_deleted":"0","num_feature":"8","num_nodes":"157","size_leaf_vector":"1"}},{"base_weights":[-7.554718E-2,-3.7177083E-1,8.331912E0,1.3211235E0,-1.3322285E0,3.3640197E-1,4.2306347E0,-2.269355E0,2.5761154E0,-5.252293E0,-9.4359666E-1,2.6360753E-1,1.0272921E1,-2.6804934E0,1.2282349E-1,1.7496011E0,9.84734E0,-1.2560028E-1,6.7674965E-1,-1.2200615E0,1.1072571E1,-7.063104E-2,1.4455664E0,-8.105346E-2,3.2941014E-1,1.6809908E0,-3.6726725E0,7.966792E-1,7.3820024E0,1.4733198E1,-1.069333E0,-6.273653E-1,4.6933506E-2,2.2949249E-1,-1.3302667E0,2.1098526E1,-2.389699E0,2.702531E0,-4.9616426E-2,7.434945E0,-8.921768E-2,-2.4770832E0,-1.3976648E-1,4.3527303E0,-7.644616E-1,3.9727107E-1,3.451699E0,3.6088333E-1,-5.054234E-2,1.405187E-1,-1.20825335E-1,2.7689632E-2,-4.684078E-2,-3.335893E-1,-1.9465115E0,5.0762004E-1,1.364402E-1,-9.870333E-2,2.5754627E-2,9.654254E-2,-5.877255E-2,2.4952523E-1,3.6492337E-2,-5.135392E0,-6.1461383E-1,5.6932793E0,-3.8357134E0,1.61874E0,-2.8058295E0,4.72056E0,-9.5895E-2,-2.3525808E0,1.2520757E0,-1.5881635E0,-1.323514E-1,-3.4566238E0,-1.2979953E-1,7.2242185E-2,-2.6507545E0,2.9256465E0,3.4164336E-1,-1.0460925E-1,-3.4630366E-2,-4.706846E0,7.3844376E0,-9.2568465E-2,-1.3512651E0,2.0104755E-1,9.295381E0,-8.302009E-1,-6.275277E0,1.0655285E1,-1.3192934E-1,-2.5370765E0,1.2495563E0,-5.128114E0,4.982821E-2,-4.255053E0,2.5422242E0,6.6563997E0,-3.8901575E0,1.276318E0,-1.327191E-1,3.4331386E0,8.668818E0,6.7032595E0,-4.1031375E0,6.409908E0,-8.924386E-2,4.1669804E-1,1.5284754E0,-1.3299153E0,1.2749895E-1,-6.6016307E0,-3.5481375E-2,3.537595E0,4.7928387E-1,-9.761711E-2,1.3455975E0,-1.2152553E0,-1.1624319E-1,8.206041E0,-5.9416816E-2,-1.3213797E-1,6.727821E-3,-1.3603394E-1,4.493167E-2,1.7152779E-1,-9.392304E-2,-2.8263293E-3,4.126609E-1,-1.1723502E-1,-2.0416707E-2,-9.094528E-2,9.391339E-2,1.7917614E-2,1.4029941E-1,-7.539365E-2,2.0895213E-1,-5.5396702E-2,2.8192064E-1,-1.3074501E-1,-4.1491766E-2,-8.986153E-2,2.855324E-1,-9.634771E-2,1.04235075E-1,2.776084E-2,-5.228869E-2,-1.3969229E-1,-3.764269E-2,1.2826115E-1,-8.080745E-2,-5.747804E-3,2.6271865E-1,-1.1519223E-1,-6.1916118E-3,-7.046948E-2,2.4053438E-1,-4.2773694E-2,8.724231E-2],"categories":[],"categories_nodes":[],"categories_segments":[],"categories_sizes":[],"default_left":[0,0,0,0,0,0,0,0,0,0,0,0,0,0,0,0,0,0,0,0,0,0,0,0,0,0,0,0,0,0,0,0,0,0,0,0,0,0,0,0,0,0,0,0,0,0,0,0,0,0,0,0,0,0,0,0,0,0,0,0,0,0,0,0,0,0,0,0,0,0,0,0,0,0,0,0,0,0,0,0,0,0,0,0,0,0,0,0,0,0,0,0,0,0,0,0,0,0,0,0,0,0,0,0,0,0,0,0,0,0,0,0,0,0,0,0,0,0,0,0,0,0,0,0,0,0,0,0,0,0,0,0,0,0,0,0,0,0,0,0,0,0,0,0,0,0,0,0,0,0,0,0,0,0,0,0,0,0,0,0,0],"id":7,"left_children":[1,3,5,7,9,-1,11,13,15,17,19,21,23,25,-1,27,29,-1,31,33,35,-1,37,-1,-1,39,41,43,45,47,49,51,-1,-1,53,55,57,59,-1,61,-1,63,-1,65,67,-1,69,-1,-1,-1,-1,-1,-1,71,73,-1,-1,-1,-1,-1,-1,-1,-1,75,77,79,81,83,85,87,-1,89,91,93,-1,95,-1,-1,97,99,-1,-1,-1,101,103,-1,105,107,109,111,113,115,117,119,121,123,-1,125,127,129,131,133,-1,135,137,139,141,143,-1,-1,145,147,-1,149,-1,151,-1,-1,153,155,-1,157,159,-1,-1,-1,-1,-1,-1,-1,-1,-1,-1,-1,-1,-1,-1,-1,-1,-1,-1,-1,-1,-1,-1,-1,-1,-1,-1,-1,-1,-1,-1,-1,-1,-1,-1,-1,-1,-1,-1],"loss_changes":[9.4394336E2,5.9652045E2,3.8503625E2,6.041117E2,3.5187732E2,0E0,2.348649E2,1.354956E2,5.788603E2,1.3117706E2,7.2274445E2,3.554607E1,4.0633258E2,1.5225433E2,0E0,4.7722174E2,5.4221857E2,0E0,9.818323E0,3.0739203E2,7.067405E2,0E0,3.5152496E1,0E0,0E0,2.7369626E2,9.502042E1,4.354563E2,5.7111926E2,4.3536353E2,1.9517262E2,1.2922277E1,0E0,0E0,1.27721436E2,2.1468262E1,3.2865917E1,7.1493996E1,0E0,8.981746E1,0E0,1.05586655E2,0E0,2.8200452E2,2.7117575E2,0E0,1.3442374E2,0E0,0E0,0E0,0E0,0E0,0E0,2.6164786E2,2.063024E2,0E0,0E0,0E0,0E0,0E0,0E0,0E0,0E0,4.8828125E-2,1.2824356E2,6.1379474E2,3.2948341E0,9.758914E2,7.363852E1,2.0301003E2,0E0,2.0970007E2,5.986118E2,3.284066E2,0E0,7.0156906E1,0E0,0E0,9.221333E1,4.784677E2,0E0,0E0,0E0,1.565167E2,4.3756958E1,0E0,4.215079E2,1.9656712E2,4.105081E2,1.044842E2,4.002411E0,4.8260114E2,2.9289255E2,3.8715594E2,2.8180966E2,4.1596268E1,0E0,1.4455557E2,1.6291335E2,1.1332344E3,3.364875E1,9.687742E1,0E0,3.8875244E1,2.5448773E2,3.7829822E2,5.6428375E1,3.0646622E2,0E0,0E0,1.1375325E2,9.3689926E1,0E0,4.2552795E0,0E0,1.300918E2,0E0,0E0,6.175834E2,2.6962042E2,0E0,2.577303E2,2.5570279E2,0E0,0E0,0E0,0E0,0E0,0E0,0E0,0E0,0E0,0E0,0E0,0E0,0E0,0E0,0E0,0E0,0E0,0E0,0E0,0E0,0E0,0E0,0E0,0E0,0E0,0E0,0E0,0E0,0E0,0E0,0E0,0E0,0E0,0E0,0E0,0E0,0E0,0E0],"parents":[2147483647,0,0,1,1,2,2,3,3,4,4,6,6,7,7,8,8,9,9,10,10,11,11,12,12,13,13,15,15,16,16,18,18,19,19,20,20,22,22,25,25,26,26,27,27,28,28,29,29,30,30,31,31,34,34,35,35,36,36,37,37,39,39,41,41,43,43,44,44,46,46,53,53,54,54,63,63,64,64,65,65,66,66,67,67,68,68,69,69,71,71,72,72,73,73,75,75,78,78,79,79,83,83,84,84,86,86,87,87,88,88,89,89,90,90,91,91,92,92,93,93,94,94,95,95,97,97,98,98,99,99,100,100,101,101,103,103,104,104,105,105,106,106,107,107,110,110,111,111,113,113,115,115,118,118,119,119,121,121,122,122],"right_children":[2,4,6,8,10,-1,12,14,16,18,20,22,24,26,-1,28,30,-1,32,34,36,-1,38,-1,-1,40,42,44,46,48,50,52,-1,-1,54,56,58,60,-1,62,-1,64,-1,66,68,-1,70,-1,-1,-1,-1,-1,-1,72,74,-1,-1,-1,-1,-1,-1,-1,-1,76,78,80,82,84,86,88,-1,90,92,94,-1,96,-1,-1,98,100,-1,-1,-1,102,104,-1,106,108,110,112,114,116,118,120,122,124,-1,126,128,130,132,134,-1,136,138,140,142,144,-1,-1,146,148,-1,150,-1,152,-1,-1,154,156,-1,158,160,-1,-1,-1,-1,-1,-1,-1,-1,-1,-1,-1,-1,-1,-1,-1,-1,-1,-1,-1,-1,-1,-1,-1,-1,-1,-1,-1,-1,-1,-1,-1,-1,-1,-1,-1,-1,-1,-1],"split_conditions":[1.7401869E0,-3.806785E-1,1.8285832E0,-1.2646413E0,-2.6131126E-1,3.3640197E-1,2.3344421E0,1.2601051E0,1.2537633E0,1.805811E0,2.2859273E0,-8.1710905E-1,-8.243417E-1,-2.0905335E0,1.2282349E-1,-5.568258E-1,-6.820001E-1,-1.2560028E-1,-3.6196688E-1,-2.4389009E-1,2.1680291E-1,-7.063104E-2,2.2073321E0,-8.105346E-2,3.2941014E-1,-1.3909028E-1,4.2024067E-1,-1.270866E0,-1.3185791E0,2.3347993E0,1.294522E0,2.0116496E0,4.6933506E-2,2.2949249E-1,-1.3909028E-1,2.3347993E0,3.0932121E0,4.637376E-1,-4.9616426E-2,-2.1918342E0,-8.921768E-2,-1.524023E0,-1.3976648E-1,-9.2460597E-1,-9.6267444E-1,3.9727107E-1,-3.9035693E-1,3.6088333E-1,-5.054234E-2,1.405187E-1,-1.20825335E-1,2.7689632E-2,-4.684078E-2,3.9230502E-1,1.3685354E0,5.0762004E-1,1.364402E-1,-9.870333E-2,2.5754627E-2,9.654254E-2,-5.877255E-2,2.4952523E-1,3.6492337E-2,-1.9130957E0,-1.4924068E0,-9.826765E-1,-8.7040675E-1,-1.0820416E0,-7.5813705E-1,-4.7681752E-1,-9.5895E-2,1.7937967E-1,4.8263696E-1,1.0381786E0,-1.323514E-1,-1.9150314E0,-1.2979953E-1,7.2242185E-2,-1.354328E0,-1.0381662E0,3.4164336E-1,-1.0460925E-1,-3.4630366E-2,-1.1794711E0,-1.0607492E0,-9.2568465E-2,-6.820001E-1,-5.5037355E-1,-4.5681542E-1,1.5421577E-1,3.8133612E-1,4.587635E-1,7.162096E-1,6.52332E-1,1.082054E0,-2.0725101E-1,4.982821E-2,1.742051E-1,-1.2680773E0,-1.2711698E0,-1.271033E0,-6.942001E-1,-1.327191E-1,-2.8697947E-2,-8.832301E-1,-2.7833718E-1,-2.892595E-1,-6.357672E-1,-8.924386E-2,4.1669804E-1,-1.2930397E0,-1.0631396E0,1.2749895E-1,-4.0439427E-1,-3.5481375E-2,-2.879233E-1,4.7928387E-1,-9.761711E-2,-2.3526539E-1,-2.8697947E-2,-1.1624319E-1,4.951455E-2,4.9195445E-1,-1.3213797E-1,6.727821E-3,-1.3603394E-1,4.493167E-2,1.7152779E-1,-9.392304E-2,-2.8263293E-3,4.126609E-1,-1.1723502E-1,-2.0416707E-2,-9.094528E-2,9.391339E-2,1.7917614E-2,1.4029941E-1,-7.539365E-2,2.0895213E-1,-5.5396702E-2,2.8192064E-1,-1.3074501E-1,-4.1491766E-2,-8.986153E-2,2.855324E-1,-9.634771E-2,1.04235075E-1,2.776084E-2,-5.228869E-2,-1.3969229E-1,-3.764269E-2,1.2826115E-1,-8.080745E-2,-5.747804E-3,2.6271865E-1,-1.1519223E-1,-6.1916118E-3,-7.046948E-2,2.4053438E-1,-4.2773694E-2,8.724231E-2],"split_indices":[6,6,6,6,6,0,6,5,5,5,5,5,5,6,0,6,6,0,6,6,6,0,6,0,0,5,5,5,5,5,5,5,0,0,5,5,5,5,0,6,0,6,0,6,6,0,6,0,0,0,0,0,0,6,6,0,0,0,0,0,0,0,0,6,6,6,6,6,6,6,0,6,6,6,0,6,0,0,6,6,0,0,0,6,6,0,6,6,6,6,6,6,6,6,6,5,0,5,5,5,5,5,0,5,5,5,5,5,0,0,5,5,0,5,0,5,0,0,5,5,0,5,5,0,0,0,0,0,0,0,0,0,0,0,0,0,0,0,0,0,0,0,0,0,0,0,0,0,0,0,0,0,0,0,0,0,0,0,0,0,0],"split_type":[0,0,0,0,0,0,0,0,0,0,0,0,0,0,0,0,0,0,0,0,0,0,0,0,0,0,0,0,0,0,0,0,0,0,0,0,0,0,0,0,0,0,0,0,0,0,0,0,0,0,0,0,0,0,0,0,0,0,0,0,0,0,0,0,0,0,0,0,0,0,0,0,0,0,0,0,0,0,0,0,0,0,0,0,0,0,0,0,0,0,0,0,0,0,0,0,0,0,0,0,0,0,0,0,0,0,0,0,0,0,0,0,0,0,0,0,0,0,0,0,0,0,0,0,0,0,0,0,0,0,0,0,0,0,0,0,0,0,0,0,0,0,0,0,0,0,0,0,0,0,0,0,0,0,0,0,0,0,0,0,0],"sum_hessian":[3.77E2,3.65E2,1.2E1,1.32E2,2.33E2,3E0,9E0,3.4E1,9.8E1,2E1,2.13E2,6E0,3E0,3.3E1,1E0,8.9E1,9E0,1.7E1,3E0,2.09E2,4E0,1E0,5E0,1E0,2E0,6E0,2.7E1,7.7E1,1.2E1,6E0,3E0,2E0,1E0,1E0,2.08E2,2E0,2E0,4E0,1E0,3E0,3E0,2.1E1,6E0,2.3E1,5.4E1,2E0,1E1,5E0,1E0,1E0,2E0,1E0,1E0,8E1,1.28E2,1E0,1E0,1E0,1E0,3E0,1E0,1E0,2E0,8E0,1.3E1,2E1,3E0,2.5E1,2.9E1,9E0,1E0,3.5E1,4.5E1,1.2E2,8E0,5E0,3E0,4E0,9E0,1.7E1,3E0,1E0,2E0,1.2E1,1.3E1,1.2E1,1.7E1,5E0,4E0,2.6E1,9E0,5E0,4E1,9E1,3E1,4E0,1E0,7E0,2E0,1.1E1,6E0,3E0,9E0,4E0,9E0,4E0,1.3E1,2E0,3E0,1E0,3E0,2.5E1,1E0,8E0,1E0,4E0,1E0,9E0,3.1E1,6.5E1,2.5E1,4E0,2.6E1,3E0,1E0,5E0,2E0,1E0,1E0,8E0,3E0,3E0,3E0,1E0,2E0,3E0,1E0,1E0,8E0,2E0,2E0,5E0,8E0,1E0,1E0,1E0,2E0,8E0,1.7E1,7E0,1E0,3E0,1E0,2.8E1,3E0,1E1,5.5E1,1E0,3E0,1.8E1,8E0],"tree_param":{"num_deleted":"0","num_feature":"8","num_nodes":"161","size_leaf_vector":"1"}},{"base_weights":[-6.328613E-2,1.0503328E1,-5.525128E-1,-5.8690685E-1,1.2934906E1,-8.2142794E-1,6.8426347E0,-9.79317E-2,4.8376378E-2,3.3428913E-1,5.845744E-2,-5.757023E-1,-1.2721667E-1,1.6561327E1,2.3920016E0,1.4171225E0,-1.4634384E0,7.145476E-2,3.986274E-1,4.802425E0,-9.8333396E-2,-1.861366E0,3.72165E0,-3.212838E0,9.7144425E-1,-4.9094148E-2,6.1743627E0,4.229677E0,-2.7421353E0,-1.5151016E0,8.68924E0,-1.470362E0,-5.365627E0,-2.0342574E0,2.1256137E0,2.9440265E0,2.6561415E-1,2.3420955E-1,-2.3090487E0,-1.4247245E-1,-5.217782E0,-7.9941535E-1,-1.0331577E-1,6.112106E0,2.629938E-1,1.3564478E-1,-2.1291523E0,-1.1682638E-1,-8.80904E-1,-1.4928545E-1,-2.3983121E-1,4.1339135E0,-1.8145721E0,6.630531E-1,1.0195759E-1,-7.7359386E-2,-1.14217065E-2,-7.6330416E-2,2.3366073E-1,-1.3028434E-1,-7.21892E-2,-2.7035525E-2,1.3660948E-2,2.1960528E-1,-1.5737973E-2,-1.172829E0,-8.5286796E-2,-2.7402768E-2,-1.1779575E-2,8.481971E-1,-2.7157447E0,3.619208E0,1.5971929E-1,-1.2130282E-1,1.5261291E-1,6.778597E-2,-2.6577653E-2,6.4481115E-1,-1.4964898E0,-2.658458E0,9.036937E-1,-1.4825624E0,6.352822E0,-1.1037689E-1,-5.579569E-1,4.0116515E0,2.9090726E0,2.3325567E0,-7.253813E-2,-4.019824E-2,1.855403E-1,9.317657E-2,-1.01297125E-1,-1.3130921E-1,-3.6538325E-2,1.347682E-1,-3.3590112E-2,3.1651545E-2,-7.8202024E-2,2.2648814E-1,-1.1806577E-2,8.3984986E-2,-1.0284008E-1,-1.2338867E-1,1.11757696E-1,-2.280964E-3,2.9125556E-1,2.3926578E-1,-4.2470563E-2],"categories":[],"categories_nodes":[],"categories_segments":[],"categories_sizes":[],"default_left":[0,0,0,0,0,0,0,0,0,0,0,0,0,0,0,0,0,0,0,0,0,0,0,0,0,0,0,0,0,0,0,0,0,0,0,0,0,0,0,0,0,0,0,0,0,0,0,0,0,0,0,0,0,0,0,0,0,0,0,0,0,0,0,0,0,0,0,0,0,0,0,0,0,0,0,0,0,0,0,0,0,0,0,0,0,0,0,0,0,0,0,0,0,0,0,0,0,0,0,0,0,0,0,0,0,0,0,0,0],"id":8,"left_children":[1,3,5,7,9,11,13,-1,-1,-1,-1,15,-1,17,19,21,23,-1,-1,25,-1,27,29,31,33,-1,35,37,39,41,43,45,47,49,51,53,-1,-1,55,57,59,61,-1,63,-1,-1,65,-1,67,-1,69,71,73,75,-1,-1,-1,-1,77,-1,-1,-1,-1,-1,-1,79,-1,-1,-1,81,83,85,-1,-1,87,-1,-1,89,91,93,95,97,99,-1,101,103,105,107,-1,-1,-1,-1,-1,-1,-1,-1,-1,-1,-1,-1,-1,-1,-1,-1,-1,-1,-1,-1,-1],"loss_changes":[1.9742742E3,4.6257104E2,7.3072327E2,6.117903E1,4.8202075E2,4.7706256E2,5.223276E2,0E0,0E0,0E0,0E0,6.014153E2,0E0,1.0662256E2,1.9565898E2,7.9879254E2,1.003385E3,0E0,0E0,9.229564E1,0E0,2.459534E2,1.6221172E3,5.0643616E2,3.469845E2,0E0,1.23206696E2,3.1293396E2,2.496854E2,7.70172E1,2.9436157E2,4.3108112E2,1.25289795E2,2.7023984E2,5.7570123E2,2.5943848E1,0E0,0E0,8.578407E0,2.830303E1,2.0331726E1,2.2858183E1,0E0,7.432976E2,0E0,0E0,1.4231357E2,0E0,2.5917292E-1,0E0,6.1068764E1,6.89574E1,2.0903827E2,2.5232552E1,0E0,0E0,0E0,0E0,1.4313014E1,0E0,0E0,0E0,0E0,0E0,0E0,1.5918575E2,0E0,0E0,0E0,2.1247292E2,3.8963257E1,1.7312622E0,0E0,0E0,1.550946E2,0E0,0E0,3.811476E2,1.06897964E2,8.634506E1,3.4026743E2,9.4114105E1,1.7515714E2,0E0,1.26288864E2,4.4666385E2,6.6735236E2,5.3355676E2,0E0,0E0,0E0,0E0,0E0,0E0,0E0,0E0,0E0,0E0,0E0,0E0,0E0,0E0,0E0,0E0,0E0,0E0,0E0,0E0,0E0],"parents":[2147483647,0,0,1,1,2,2,3,3,4,4,5,5,6,6,11,11,13,13,14,14,15,15,16,16,19,19,21,21,22,22,23,23,24,24,26,26,27,27,28,28,29,29,30,30,31,31,32,32,33,33,34,34,35,35,38,38,39,39,40,40,41,41,43,43,46,46,48,48,50,50,51,51,52,52,53,53,58,58,65,65,69,69,70,70,71,71,74,74,77,77,78,78,79,79,80,80,81,81,82,82,84,84,85,85,86,86,87,87],"right_children":[2,4,6,8,10,12,14,-1,-1,-1,-1,16,-1,18,20,22,24,-1,-1,26,-1,28,30,32,34,-1,36,38,40,42,44,46,48,50,52,54,-1,-1,56,58,60,62,-1,64,-1,-1,66,-1,68,-1,70,72,74,76,-1,-1,-1,-1,78,-1,-1,-1,-1,-1,-1,80,-1,-1,-1,82,84,86,-1,-1,88,-1,-1,90,92,94,96,98,100,-1,102,104,106,108,-1,-1,-1,-1,-1,-1,-1,-1,-1,-1,-1,-1,-1,-1,-1,-1,-1,-1,-1,-1,-1],"split_conditions":[-1.7130077E0,-2.8905606E-1,1.7401869E0,-4.7681752E-1,1.0665686E0,1.3775686E0,1.8285832E0,-9.79317E-2,4.8376378E-2,3.3428913E-1,5.845744E-2,-3.644295E-1,-1.2721667E-1,-1.0387186E0,3.0985963E-1,-7.01574E-1,5.3462267E-1,7.145476E-2,3.986274E-1,-1.3758632E0,-9.8333396E-2,-5.8908725E-1,3.2713696E-1,9.549999E-2,-1.354328E0,-4.9094148E-2,2.3344421E0,-1.2634816E0,-9.2633706E-1,-4.7681102E-1,-4.7681102E-1,-2.52048E-1,3.0985963E-1,1.0965302E0,1.4336748E0,-4.7681102E-1,2.6561415E-1,2.3420955E-1,-8.1395555E-1,-1.4882447E0,-8.1395555E-1,-5.891925E-1,-1.0331577E-1,-5.891925E-1,2.629938E-1,1.3564478E-1,3.0985963E-1,-1.1682638E-1,4.2224115E-1,-1.4928545E-1,1.6584378E0,1.3212934E0,1.8832009E0,-9.2633706E-1,1.0195759E-1,-7.7359386E-2,-1.14217065E-2,-7.6330416E-2,-1.0387186E0,-1.3028434E-1,-7.21892E-2,-2.7035525E-2,1.3660948E-2,2.1960528E-1,-1.5737973E-2,8.509658E-2,-8.5286796E-2,-2.7402768E-2,-1.1779575E-2,1.5460564E0,1.9955825E0,8.717672E-1,1.5971929E-1,-1.2130282E-1,2.2203455E0,6.778597E-2,-2.6577653E-2,1.1536744E0,-1.3936311E-1,-1.1123674E0,-5.5037355E-1,-1.4924068E0,-2.0905335E0,-1.1037689E-1,-1.9834256E0,-1.0781703E0,6.568486E-1,-1.0117117E0,-7.253813E-2,-4.019824E-2,1.855403E-1,9.317657E-2,-1.01297125E-1,-1.3130921E-1,-3.6538325E-2,1.347682E-1,-3.3590112E-2,3.1651545E-2,-7.8202024E-2,2.2648814E-1,-1.1806577E-2,8.3984986E-2,-1.0284008E-1,-1.2338867E-1,1.11757696E-1,-2.280964E-3,2.9125556E-1,2.3926578E-1,-4.2470563E-2],"split_indices":[0,6,6,6,6,6,6,0,0,0,0,0,0,0,0,0,0,0,0,0,0,6,6,6,6,0,6,0,0,0,0,0,0,0,0,0,0,0,0,0,0,0,0,0,0,0,0,0,0,0,0,0,0,0,0,0,0,0,0,0,0,0,0,0,0,0,0,0,0,0,0,0,0,0,0,0,0,6,6,6,6,6,6,0,6,6,6,6,0,0,0,0,0,0,0,0,0,0,0,0,0,0,0,0,0,0,0,0,0],"split_type":[0,0,0,0,0,0,0,0,0,0,0,0,0,0,0,0,0,0,0,0,0,0,0,0,0,0,0,0,0,0,0,0,0,0,0,0,0,0,0,0,0,0,0,0,0,0,0,0,0,0,0,0,0,0,0,0,0,0,0,0,0,0,0,0,0,0,0,0,0,0,0,0,0,0,0,0,0,0,0,0,0,0,0,0,0,0,0,0,0,0,0,0,0,0,0,0,0,0,0,0,0,0,0,0,0,0,0,0,0],"sum_hessian":[3.8E2,1.6E1,3.64E2,3E0,1.3E1,3.52E2,1.2E1,1E0,2E0,9E0,4E0,3.38E2,1.4E1,3E0,9E0,1.04E2,2.34E2,1E0,2E0,7E0,2E0,4.3E1,6.1E1,1.36E2,9.8E1,1E0,6E0,5E0,3.8E1,3E1,3.1E1,7.6E1,6E1,2.7E1,7.1E1,5E0,1E0,2E0,3E0,1.9E1,1.9E1,2.6E1,4E0,2.1E1,1E1,5E0,7.1E1,5.4E1,6E0,6E0,2.1E1,4.7E1,2.4E1,3E0,2E0,1E0,2E0,1E0,1.8E1,9E0,1E1,1.9E1,7E0,1.2E1,9E0,5E1,2.1E1,1E0,5E0,1.5E1,6E0,4.3E1,4E0,7E0,1.7E1,1E0,2E0,1.5E1,3E0,2.9E1,2.1E1,1.1E1,4E0,2E0,4E0,2.5E1,1.8E1,1.1E1,6E0,1.2E1,3E0,1E0,2E0,4E0,2.5E1,6E0,1.5E1,5E0,6E0,2E0,2E0,2E0,2E0,3E0,2.2E1,1.5E1,3E0,3E0,8E0],"tree_param":{"num_deleted":"0","num_feature":"8","num_nodes":"109","size_leaf_vector":"1"}},{"base_weights":[2.0192286E-1,1.1376573E1,-2.854947E-1,6.293433E0,3.8064092E-1,-5.8004513E0,2.6031193E-1,2.1716303E-1,-2.5807451E-2,-1.3500261E-1,-4.245461E0,-5.634963E-1,2.4590878E0,3.6442702E0,-5.7229266E0,1.6855724E0,-1.8283198E0,5.011659E-2,4.9260716E0,1.4323293E-1,-3.1986784E-2,6.5254513E-3,-1.2511876E-1,8.63147E0,-8.944268E-2,-4.1965327E0,-9.784026E-1,3.4894369E0,-1.8323953E0,4.121245E0,2.4872033E-1,2.9485555E0,1.0628436E1,8.787238E-1,-3.0002625E0,-3.6378348E0,-1.2950076E-1,3.8175855E0,-2.3352292E0,2.0622165E0,1.9478935E-1,-9.1380674E-1,-1.117065E-1,1.7749773E-1,3.104274E0,6.177098E0,-4.616693E-2,1.6987993E1,4.6680593E0,-4.335574E-1,3.5605785E-1,-5.958454E0,4.9857706E-2,-4.350068E0,1.114262E-1,2.3475227E0,4.2549628E-1,-1.6278604E0,-1.2296691E-1,5.0502434E0,9.399905E-2,-1.9989834E0,5.669007E0,-1.0080976E-1,3.4676323E0,-4.4283632E-2,1.9515604E-1,4.134862E-1,5.078464E-1,6.8827057E-1,3.381958E-1,3.5875468E0,-1.6230546E0,-1.3909954E-1,-7.07357E-1,-5.0832405E0,4.812033E0,-3.6625943E0,5.9567924E0,-3.1284513E0,3.0168155E-1,2.2743882E-1,1.6713767E0,4.0975227E0,-1.4021702E-1,-1.2517801E-1,-4.9436915E-1,2.623982E-1,-9.7196746E-1,4.261018E0,-3.8220768E0,-7.957355E-2,9.219576E-2,2.1606386E0,-8.419685E-2,2.2446844E-1,1.0246346E0,-3.9992888E0,-5.9406024E-1,-9.686614E-2,7.5273134E-2,-4.149645E0,-1.2520033E-1,1.2064656E-1,2.6247084E-2,-1.248272E-1,1.7450521E0,1.5346512E1,3.8243872E-1,-4.736592E0,2.875897E-1,4.209398E0,-2.834208E0,-3.0626495E0,2.1193767E-1,-1.0056367E-1,1.749169E-1,6.677956E-1,-9.640698E-2,-8.2693115E-2,5.3022537E-2,3.1084461E0,8.031551E0,5.772942E-3,-1.06582955E-1,-1.8258251E-3,1.3889574E-1,4.6843596E-2,-5.76506E-2,2.9858937E-2,-1.2003153E-1,1.5792891E-1,-5.3353447E-2,-1.2002333E-1,2.3184597E-2,1.7608522E-1,-6.84303E-2,1.391985E-1,3.6082378E-1,-4.6903975E-2,8.306307E-2,-8.3035976E-2,-1.3915314E-1,4.095037E-1,-4.980973E-2,-2.692229E-3,2.7971956E-1,-8.148955E-2,3.42182E-2,4.659706E-2,-1.1290382E-1,-9.014678E-2,3.569215E-2,7.970491E-2,-5.5145476E-2,4.3867347E-1,4.65889E-2],"categories":[],"categories_nodes":[],"categories_segments":[],"categories_sizes":[],"default_left":[0,0,0,0,0,0,0,0,0,0,0,0,0,0,0,0,0,0,0,0,0,0,0,0,0,0,0,0,0,0,0,0,0,0,0,0,0,0,0,0,0,0,0,0,0,0,0,0,0,0,0,0,0,0,0,0,0,0,0,0,0,0,0,0,0,0,0,0,0,0,0,0,0,0,0,0,0,0,0,0,0,0,0,0,0,0,0,0,0,0,0,0,0,0,0,0,0,0,0,0,0,0,0,0,0,0,0,0,0,0,0,0,0,0,0,0,0,0,0,0,0,0,0,0,0,0,0,0,0,0,0,0,0,0,0,0,0,0,0,0,0,0,0,0,0,0,0,0,0,0,0,0,0,0,0,0,0],"id":9,"left_children":[1,3,5,7,-1,9,11,-1,-1,-1,13,15,17,19,21,23,25,27,29,-1,-1,-1,-1,31,33,35,37,39,41,43,-1,45,47,49,51,53,-1,55,57,59,-1,61,-1,-1,63,65,-1,67,69,71,-1,73,-1,75,-1,77,-1,79,-1,81,83,85,87,-1,89,-1,-1,91,-1,93,-1,95,97,-1,99,101,103,105,107,109,111,-1,113,115,-1,-1,117,-1,119,121,123,-1,-1,125,-1,-1,127,129,131,-1,-1,133,-1,-1,-1,-1,135,137,139,141,143,145,147,149,-1,-1,-1,151,-1,-1,-1,153,155,-1,-1,-1,-1,-1,-1,-1,-1,-1,-1,-1,-1,-1,-1,-1,-1,-1,-1,-1,-1,-1,-1,-1,-1,-1,-1,-1,-1,-1,-1,-1,-1,-1,-1],"loss_changes":[2.0721323E3,5.1093066E2,1.0997444E3,3.8994553E2,0E0,2.2793213E1,6.0425214E2,0E0,0E0,0E0,1.924567E2,6.937452E2,5.399867E2,6.379538E1,4.343045E1,1.0844203E3,3.1009778E2,3.0941156E2,2.252583E2,0E0,0E0,0E0,0E0,1.7493506E2,2.0218018E2,3.0866028E1,7.622223E2,1.3267448E2,1.019311E2,1.7776276E2,0E0,1.12968575E2,4.1760803E2,1.2040262E3,3.042395E2,2.5072308E2,0E0,6.197285E2,2.3617487E2,8.720094E1,0E0,1.9521608E2,0E0,0E0,1.21975555E2,1.3662709E2,0E0,8.1240625E2,3.7440936E2,2.4869989E2,0E0,5.784308E1,0E0,2.4301721E2,0E0,5.597698E2,0E0,2.2640517E2,0E0,1.08918915E2,3.0745435E2,1.439935E2,2.0445384E2,0E0,2.1650317E2,0E0,0E0,6.995622E1,0E0,5.794795E1,0E0,2.2253401E2,9.542253E1,0E0,7.0032166E1,1.05686035E1,5.2599564E0,1.478584E2,8.269495E2,2.4238959E2,4.3840768E2,0E0,2.3625163E2,3.3227075E2,0E0,0E0,9.288939E1,0E0,4.309563E1,1.1616223E2,2.5545513E1,0E0,0E0,6.413464E1,0E0,0E0,5.7040127E1,1.3892874E2,5.277725E2,0E0,0E0,2.0186813E2,0E0,0E0,0E0,0E0,1.6935182E2,2.0326172E1,1.2087403E2,1.283783E1,8.815258E2,6.7696045E2,1.1845372E2,6.6150024E1,0E0,0E0,0E0,9.335626E1,0E0,0E0,0E0,1.4309485E2,5.0098862E2,0E0,0E0,0E0,0E0,0E0,0E0,0E0,0E0,0E0,0E0,0E0,0E0,0E0,0E0,0E0,0E0,0E0,0E0,0E0,0E0,0E0,0E0,0E0,0E0,0E0,0E0,0E0,0E0,0E0,0E0,0E0,0E0,0E0,0E0],"parents":[2147483647,0,0,1,1,2,2,3,3,5,5,6,6,10,10,11,11,12,12,13,13,14,14,15,15,16,16,17,17,18,18,23,23,24,24,25,25,26,26,27,27,28,28,29,29,31,31,32,32,33,33,34,34,35,35,37,37,38,38,39,39,41,41,44,44,45,45,47,47,48,48,49,49,51,51,53,53,55,55,57,57,59,59,60,60,61,61,62,62,64,64,67,67,69,69,71,71,72,72,74,74,75,75,76,76,77,77,78,78,79,79,80,80,82,82,83,83,86,86,88,88,89,89,90,90,93,93,96,96,97,97,98,98,101,101,106,106,107,107,108,108,109,109,110,110,111,111,112,112,113,113,117,117,121,121,122,122],"right_children":[2,4,6,8,-1,10,12,-1,-1,-1,14,16,18,20,22,24,26,28,30,-1,-1,-1,-1,32,34,36,38,40,42,44,-1,46,48,50,52,54,-1,56,58,60,-1,62,-1,-1,64,66,-1,68,70,72,-1,74,-1,76,-1,78,-1,80,-1,82,84,86,88,-1,90,-1,-1,92,-1,94,-1,96,98,-1,100,102,104,106,108,110,112,-1,114,116,-1,-1,118,-1,120,122,124,-1,-1,126,-1,-1,128,130,132,-1,-1,134,-1,-1,-1,-1,136,138,140,142,144,146,148,150,-1,-1,-1,152,-1,-1,-1,154,156,-1,-1,-1,-1,-1,-1,-1,-1,-1,-1,-1,-1,-1,-1,-1,-1,-1,-1,-1,-1,-1,-1,-1,-1,-1,-1,-1,-1,-1,-1,-1,-1,-1,-1],"split_conditions":[-1.7130077E0,-7.314334E-1,-9.0693593E-1,-8.785148E-1,3.8064092E-1,-9.5579267E-1,5.152147E-1,2.1716303E-1,-2.5807451E-2,-1.3500261E-1,-1.2634816E0,-3.644295E-1,1.974781E-1,-9.5219433E-1,-9.5219433E-1,-8.158673E-1,-6.095572E-1,8.1058264E-1,2.533751E0,1.4323293E-1,-3.1986784E-2,6.5254513E-3,-1.2511876E-1,-8.785148E-1,-1.0962926E-1,-6.723673E-1,-4.7986153E-1,7.473867E-1,3.0324502E0,6.091606E-1,2.4872033E-1,-8.845267E-1,-8.580047E-1,-2.143228E-1,2.9168135E-1,-6.7459804E-1,-1.2950076E-1,-4.9403143E-1,3.606624E-1,5.6389207E-1,1.9478935E-1,2.5256538E0,-1.117065E-1,1.7749773E-1,6.2433594E-1,-1.0387186E0,-4.616693E-2,-9.2633706E-1,-4.7681102E-1,-1.0387186E0,3.5605785E-1,-4.7681102E-1,4.9857706E-2,1.6584378E0,1.114262E-1,8.509658E-2,4.2549628E-1,7.593857E-1,-1.2296691E-1,-1.0387186E0,-2.52048E-1,-7.01574E-1,-5.891925E-1,-1.0080976E-1,2.2203455E0,-4.4283632E-2,1.9515604E-1,-8.695681E-1,5.078464E-1,-8.2755935E-1,3.381958E-1,-7.790749E-1,-7.8640026E-1,-1.3909954E-1,7.5518303E-3,-7.5242084E-1,-8.9677393E-1,-5.2614903E-1,-5.8348536E-1,-7.931592E-2,-1.6651542E-1,2.2743882E-1,5.5647534E-1,6.312178E-1,-1.4021702E-1,-1.2517801E-1,2.0059638E0,2.623982E-1,2.9336805E0,1.7932999E0,8.71426E-1,-7.957355E-2,9.219576E-2,-8.415566E-1,-8.419685E-2,2.2446844E-1,-6.8770164E-1,-8.072252E-1,-7.4122983E-1,-9.686614E-2,7.5273134E-2,-8.072252E-1,-1.2520033E-1,1.2064656E-1,2.6247084E-2,-1.248272E-1,-5.187222E-1,-5.9284174E-1,-5.439037E-1,-1.6197266E-1,-3.6098693E-2,-2.3762904E-1,2.812418E-1,5.371093E-1,2.1193767E-1,-1.0056367E-1,1.749169E-1,9.7319144E-1,-9.640698E-2,-8.2693115E-2,5.3022537E-2,1.6182342E0,1.8187828E0,5.772942E-3,-1.06582955E-1,-1.8258251E-3,1.3889574E-1,4.6843596E-2,-5.76506E-2,2.9858937E-2,-1.2003153E-1,1.5792891E-1,-5.3353447E-2,-1.2002333E-1,2.3184597E-2,1.7608522E-1,-6.84303E-2,1.391985E-1,3.6082378E-1,-4.6903975E-2,8.306307E-2,-8.3035976E-2,-1.3915314E-1,4.095037E-1,-4.980973E-2,-2.692229E-3,2.7971956E-1,-8.148955E-2,3.42182E-2,4.659706E-2,-1.1290382E-1,-9.014678E-2,3.569215E-2,7.970491E-2,-5.5145476E-2,4.3867347E-1,4.65889E-2],"split_indices":[0,1,1,1,0,1,1,0,0,0,0,0,0,1,1,1,1,1,1,0,0,0,0,1,1,1,1,1,1,1,0,1,1,1,1,1,0,1,1,1,0,1,0,0,1,0,0,0,0,0,0,0,0,0,0,0,0,0,0,0,0,0,0,0,0,0,0,1,0,1,0,1,1,0,1,1,1,1,1,1,1,0,1,1,0,0,1,0,1,1,1,0,0,1,0,0,1,1,1,0,0,1,0,0,0,0,1,1,1,1,1,1,1,1,0,0,0,1,0,0,0,1,1,0,0,0,0,0,0,0,0,0,0,0,0,0,0,0,0,0,0,0,0,0,0,0,0,0,0,0,0,0,0,0,0,0,0],"split_type":[0,0,0,0,0,0,0,0,0,0,0,0,0,0,0,0,0,0,0,0,0,0,0,0,0,0,0,0,0,0,0,0,0,0,0,0,0,0,0,0,0,0,0,0,0,0,0,0,0,0,0,0,0,0,0,0,0,0,0,0,0,0,0,0,0,0,0,0,0,0,0,0,0,0,0,0,0,0,0,0,0,0,0,0,0,0,0,0,0,0,0,0,0,0,0,0,0,0,0,0,0,0,0,0,0,0,0,0,0,0,0,0,0,0,0,0,0,0,0,0,0,0,0,0,0,0,0,0,0,0,0,0,0,0,0,0,0,0,0,0,0,0,0,0,0,0,0,0,0,0,0,0,0,0,0,0,0],"sum_hessian":[3.79E2,1.5E1,3.64E2,1E1,5E0,3.2E1,3.32E2,6E0,4E0,1.8E1,1.4E1,2.42E2,9E1,2E0,1.2E1,8.7E1,1.55E2,4.6E1,4.4E1,1E0,1E0,1E0,1.1E1,1.7E1,7E1,4E1,1.15E2,1.6E1,3E1,4.1E1,3E0,5E0,1.2E1,5.3E1,1.7E1,3.4E1,6E0,2.5E1,9E1,1.4E1,2E0,2.5E1,5E0,6E0,3.5E1,3E0,2E0,5E0,7E0,5E1,3E0,1.1E1,6E0,3.2E1,2E0,2.4E1,1E0,7.7E1,1.3E1,5E0,9E0,2.2E1,3E0,1E0,3.4E1,1E0,2E0,2E0,3E0,6E0,1E0,1.1E1,3.9E1,9E0,2E0,3E1,2E0,9E0,1.5E1,4.3E1,3.4E1,1E0,4E0,6E0,3E0,5E0,1.7E1,1E0,2E0,3.1E1,3E0,1E0,1E0,5E0,1E0,2E0,9E0,1.1E1,2.8E1,1E0,1E0,1.9E1,1.1E1,1E0,1E0,6E0,3E0,5E0,1E1,2.9E1,1.4E1,1.5E1,1.9E1,3E0,1E0,2E0,4E0,1.4E1,3E0,1E0,1E0,2.5E1,6E0,1E0,2E0,4E0,1E0,7E0,2E0,3E0,8E0,5E0,2.3E1,1.4E1,5E0,1E0,2E0,2E0,3E0,6E0,4E0,2.5E1,4E0,1E0,1.3E1,1.1E1,4E0,1.5E1,4E0,1E0,2E0,2E0,1.2E1,2.2E1,3E0,1E0,5E0],"tree_param":{"num_deleted":"0","num_feature":"8","num_nodes":"157","size_leaf_vector":"1"}},{"base_weights":[-1.2543969E-2,-3.8900903E-1,4.5458093E0,2.796466E-1,-2.84738E0,6.9686866E0,-1.6035578E0,5.2139664E-1,-7.7278614E-1,-1.1697676E-2,-4.265375E0,9.391102E0,-1.1515471E-1,-6.851926E-2,1.3466781E-1,8.192053E-1,1.2753567E-1,-6.316183E-1,-8.3770834E-2,-3.9156404E0,-5.731402E0,1.1507781E1,1.2173862E-1,4.051909E-2,-8.359337E-3,-3.017876E-1,5.95493E-2,3.18606E-2,-1.7895164E0,-1.24175765E-1,-1.0284439E-1,-1.4260823E-1,-3.1776953E-2,8.461425E-2,3.1592047E-1,-4.6099797E-1,2.4147305E0,-1.1822256E0,-1.2376327E-1,-4.1967538E-1,2.6580822E-1,-1.8845677E0,3.0998647E-1,9.477445E-2,-6.998777E-2,-1.1664857E-1,3.993897E-1,3.3516092E0,-8.227754E-2,2.4661025E-1,-1.14096954E-1,-3.388651E-2,-7.570865E-2,4.4274695E-2,-1.6749045E0,-1.2771693E-2,6.0800232E-2,-8.1064545E-2,1.9432582E-1,-7.873593E-2,-2.9015455E-2],"categories":[],"categories_nodes":[],"categories_segments":[],"categories_sizes":[],"default_left":[0,0,0,0,0,0,0,0,0,0,0,0,0,0,0,0,0,0,0,0,0,0,0,0,0,0,0,0,0,0,0,0,0,0,0,0,0,0,0,0,0,0,0,0,0,0,0,0,0,0,0,0,0,0,0,0,0,0,0,0,0],"id":10,"left_children":[1,3,5,7,9,11,13,15,17,-1,19,21,-1,-1,-1,23,25,27,-1,29,31,33,-1,-1,-1,35,-1,-1,37,-1,39,-1,-1,-1,-1,41,43,45,-1,47,49,51,53,-1,-1,-1,55,57,-1,-1,-1,-1,-1,-1,59,-1,-1,-1,-1,-1,-1],"loss_changes":[6.500909E2,5.758835E2,4.4064307E2,7.055867E1,2.3804956E2,6.9298376E2,1.5598187E2,2.628566E1,2.2644907E1,0E0,3.3359985E0,6.214795E1,0E0,0E0,0E0,1.9171121E2,1.2059337E2,1.3367981E2,0E0,3.482832E2,2.9792526E1,2.4879211E2,0E0,0E0,0E0,3.8153435E1,0E0,0E0,8.397142E1,0E0,1.9575269E0,0E0,0E0,0E0,0E0,9.041512E1,8.227175E1,2.2936078E2,0E0,1.3640308E2,6.323795E2,4.678566E0,2.070107E2,0E0,0E0,0E0,6.725464E1,2.663783E2,0E0,0E0,0E0,0E0,0E0,0E0,8.497009E0,0E0,0E0,0E0,0E0,0E0,0E0],"parents":[2147483647,0,0,1,1,2,2,3,3,4,4,5,5,6,6,7,7,8,8,10,10,11,11,15,15,16,16,17,17,19,19,20,20,21,21,25,25,28,28,30,30,35,35,36,36,37,37,39,39,40,40,41,41,42,42,46,46,47,47,54,54],"right_children":[2,4,6,8,10,12,14,16,18,-1,20,22,-1,-1,-1,24,26,28,-1,30,32,34,-1,-1,-1,36,-1,-1,38,-1,40,-1,-1,-1,-1,42,44,46,-1,48,50,52,54,-1,-1,-1,56,58,-1,-1,-1,-1,-1,-1,60,-1,-1,-1,-1,-1,-1],"split_conditions":[1.6244789E0,6.866015E-1,-4.2967398E-2,4.6109053E-1,-4.1145077E-1,3.9512558E0,5.550915E0,-4.1145077E-1,1.3336319E0,-1.1697676E-2,7.519376E-1,2.7878673E0,-1.1515471E-1,-6.851926E-2,1.3466781E-1,-4.0775186E-1,5.042093E-1,-7.725363E-1,-8.3770834E-2,1.051386E0,1.4161704E0,-7.725363E-1,1.2173862E-1,4.051909E-2,-8.359337E-3,1.7024344E-1,5.95493E-2,3.18606E-2,7.519376E-1,-1.24175765E-1,1.7024344E-1,-1.4260823E-1,-3.1776953E-2,8.461425E-2,3.1592047E-1,-2.2535962E-1,-7.725363E-1,1.3942483E-1,-1.2376327E-1,1.5985626E0,1.4161704E0,-5.901441E-1,1.3942483E-1,9.477445E-2,-6.998777E-2,-1.1664857E-1,5.042093E-1,1.4161704E0,-8.227754E-2,2.4661025E-1,-1.14096954E-1,-3.388651E-2,-7.570865E-2,4.4274695E-2,-1.20603666E-1,-1.2771693E-2,6.0800232E-2,-8.1064545E-2,1.9432582E-1,-7.873593E-2,-2.9015455E-2],"split_indices":[7,4,4,7,7,7,7,7,7,0,7,7,0,0,0,4,4,4,0,4,4,4,0,0,0,7,0,0,7,0,7,0,0,0,0,4,4,4,0,4,4,4,4,0,0,0,4,4,0,0,0,0,0,0,7,0,0,0,0,0,0],"split_type":[0,0,0,0,0,0,0,0,0,0,0,0,0,0,0,0,0,0,0,0,0,0,0,0,0,0,0,0,0,0,0,0,0,0,0,0,0,0,0,0,0,0,0,0,0,0,0,0,0,0,0,0,0,0,0,0,0,0,0,0,0],"sum_hessian":[3.77E2,3.49E2,2.8E1,2.75E2,7.4E1,2E1,8E0,2.24E2,5.1E1,2.9E1,4.5E1,1.7E1,3E0,7E0,1E0,1.27E2,9.7E1,5E1,1E0,3.9E1,6E0,9E0,8E0,6.4E1,6.3E1,8.5E1,1.2E1,1.7E1,3.3E1,2.4E1,1.5E1,4E0,2E0,4E0,5E0,8.1E1,4E0,3E1,3E0,8E0,7E0,2.8E1,5.3E1,3E0,1E0,7E0,2.3E1,4E0,4E0,2E0,5E0,2.7E1,1E0,2.7E1,2.6E1,1.7E1,6E0,2E0,2E0,1E0,2.5E1],"tree_param":{"num_deleted":"0","num_feature":"8","num_nodes":"61","size_leaf_vector":"1"}},{"base_weights":[6.823819E-2,7.8436863E-1,-2.484874E0,2.7396645E-2,3.967984E-1,-1.1017658E-1,1.1744861E-1,-1.4597845E0,7.110076E-1,1.9274409E-1,-2.8587992E0,-1.6907818E0,-8.4757566E-1,5.415264E-1,1.5558568E0,-1.8773124E0,-1.0333273E-1,5.517366E-1,-1.0675553E-1,-3.5537121E0,2.1611476E-1,-3.311012E0,1.0797725E0,3.3926437E0,-1.3128741E-1,-1.11573115E-1,1.1921885E0,-2.4281745E0,2.1106617E-1,-1.6412302E0,-7.903308E-2,-2.0690271E-1,-4.7178316E0,5.8969865E0,-2.116981E-1,-1.2335719E0,9.754981E0,3.325903E-1,-9.951418E-1,6.834683E-1,-7.7404216E-2,-7.973608E-2,2.963536E-2,-1.2757939E-1,1.6315347E-1,-1.2448407E-1,-1.7300731E0,1.9705851E0,1.2315244E1,-1.5793837E0,2.8785512E0,2.0635214E-2,-1.3398722E-1,4.551863E-1,6.034004E-2,-3.8865025E0,5.029368E0,3.637104E0,-8.296922E-2,-8.546114E-1,-5.4151304E-2,9.543649E0,2.6300153E-1,-2.5941238E0,1.6975163E1,-5.437131E-1,-2.1245039E0,4.7193146E0,1.612908E0,-8.898057E-2,1.1789251E-2,2.6078394E-1,-3.3480205E-2,-8.820919E-2,1.9923659E-1,7.1958737E-3,-4.6067223E-2,2.4320951E-1,4.812293E-2,3.2007033E-1,-2.0737178E0,1.0246577E-3,-8.0213696E-2,5.023339E-1,1.8077639E-1,9.8644483E-1,-1.2691769E-1,-2.6438603E-2,-1.1813578E-1,4.6279913E-1,1.51002165E-2,-6.211223E-2,5.7081814E0,1.3325027E-1,-8.8202395E-2,1.3773018E-2,-1.0912306E-1,-3.2833155E-2,3.1504747E-2,-7.055812E-2,1.4205398E-1],"categories":[],"categories_nodes":[],"categories_segments":[],"categories_sizes":[],"default_left":[0,0,0,0,0,0,0,0,0,0,0,0,0,0,0,0,0,0,0,0,0,0,0,0,0,0,0,0,0,0,0,0,0,0,0,0,0,0,0,0,0,0,0,0,0,0,0,0,0,0,0,0,0,0,0,0,0,0,0,0,0,0,0,0,0,0,0,0,0,0,0,0,0,0,0,0,0,0,0,0,0,0,0,0,0,0,0,0,0,0,0,0,0,0,0,0,0,0,0,0,0],"id":11,"left_children":[1,3,5,-1,7,-1,9,11,13,-1,15,17,19,21,23,25,-1,27,-1,29,-1,31,33,35,-1,-1,37,39,-1,41,-1,43,45,47,49,51,53,-1,55,57,-1,-1,-1,-1,-1,-1,59,61,63,65,67,-1,-1,-1,-1,69,71,73,-1,75,-1,77,79,81,83,85,87,89,91,-1,-1,-1,93,-1,-1,-1,-1,-1,-1,-1,95,-1,-1,-1,-1,97,-1,-1,-1,-1,-1,-1,99,-1,-1,-1,-1,-1,-1,-1,-1],"loss_changes":[6.8355005E2,6.5745316E1,6.450785E2,0E0,1.04129715E2,0E0,1.2969543E3,2.3729858E0,2.0991676E1,0E0,7.0323E1,1.4904485E2,3.15226E2,2.6843286E2,3.914301E2,3.002428E2,0E0,3.7772787E2,0E0,1.7533875E-1,0E0,6.855556E1,7.035072E2,6.259912E2,0E0,0E0,5.1801526E2,4.6802944E1,0E0,2.6559906E1,0E0,3.514315E2,3.9365845E1,5.8045416E2,3.8405313E2,1.6594653E2,7.1804565E2,0E0,2.597165E2,6.92394E1,0E0,0E0,0E0,0E0,0E0,0E0,2.1106834E0,2.0335406E2,6.5797253E2,3.4471542E1,5.814937E1,0E0,0E0,0E0,0E0,2.7286972E1,1.991004E2,1.8714862E2,0E0,7.6074E0,0E0,2.7831177E1,5.411263E2,1.105213E1,2.4151367E2,2.0894554E2,1.1712698E2,7.802489E2,3.6184763E2,0E0,0E0,0E0,1.4073746E2,0E0,0E0,0E0,0E0,0E0,0E0,0E0,1.2391321E2,0E0,0E0,0E0,0E0,3.1573387E1,0E0,0E0,0E0,0E0,0E0,0E0,1.5006274E2,0E0,0E0,0E0,0E0,0E0,0E0,0E0,0E0],"parents":[2147483647,0,0,1,1,2,2,4,4,6,6,7,7,8,8,10,10,11,11,12,12,13,13,14,14,15,15,17,17,19,19,21,21,22,22,23,23,26,26,27,27,29,29,31,31,32,32,33,33,34,34,35,35,36,36,38,38,39,39,46,46,47,47,48,48,49,49,50,50,55,55,56,56,57,57,59,59,61,61,62,62,63,63,64,64,65,65,66,66,67,67,68,68,72,72,80,80,85,85,92,92],"right_children":[2,4,6,-1,8,-1,10,12,14,-1,16,18,20,22,24,26,-1,28,-1,30,-1,32,34,36,-1,-1,38,40,-1,42,-1,44,46,48,50,52,54,-1,56,58,-1,-1,-1,-1,-1,-1,60,62,64,66,68,-1,-1,-1,-1,70,72,74,-1,76,-1,78,80,82,84,86,88,90,92,-1,-1,-1,94,-1,-1,-1,-1,-1,-1,-1,96,-1,-1,-1,-1,98,-1,-1,-1,-1,-1,-1,100,-1,-1,-1,-1,-1,-1,-1,-1],"split_conditions":[6.866015E-1,-7.725363E-1,1.051386E0,2.7396645E-2,-2.2535962E-1,-1.1017658E-1,1.2337781E0,-4.0775186E-1,5.042093E-1,1.9274409E-1,1.9633471E0,-2.5289547E-1,8.350921E-1,-7.106464E-1,4.9391136E-1,2.0201224E-1,-1.0333273E-1,-3.8225985E-1,-1.0675553E-1,-4.9314362E-1,2.1611476E-1,-1.0428238E0,-2.7990562E-1,-6.125569E-1,-1.3128741E-1,-1.11573115E-1,3.2095164E-1,-7.70353E-1,2.1106617E-1,-6.547306E-1,-7.903308E-2,-1.3977466E0,-8.3621985E-1,-4.0927E-1,8.166115E-1,-7.106464E-1,-5.4384685E-1,3.325903E-1,1.2317148E0,-5.901441E-1,-7.7404216E-2,-7.973608E-2,2.963536E-2,-1.2757939E-1,1.6315347E-1,-1.2448407E-1,1.3942483E-1,-4.2967398E-2,1.3942483E-1,1.3942483E-1,-4.2967398E-2,2.0635214E-2,-1.3398722E-1,4.551863E-1,6.034004E-2,1.5985626E0,1.4161704E0,-9.1014236E-1,-8.296922E-2,-7.400258E-1,-5.4151304E-2,-6.0687053E-1,-6.547306E-1,-3.81786E-1,-3.7467805E-1,5.1381356E-1,6.057428E-1,8.346183E-1,1.3639224E0,-8.898057E-2,1.1789251E-2,2.6078394E-1,1.2430875E0,-8.820919E-2,1.9923659E-1,7.1958737E-3,-4.6067223E-2,2.4320951E-1,4.812293E-2,3.2007033E-1,1.3942483E-1,1.0246577E-3,-8.0213696E-2,5.023339E-1,1.8077639E-1,-4.2967398E-2,-1.2691769E-1,-2.6438603E-2,-1.1813578E-1,4.6279913E-1,1.51002165E-2,-6.211223E-2,1.3942483E-1,1.3325027E-1,-8.8202395E-2,1.3773018E-2,-1.0912306E-1,-3.2833155E-2,3.1504747E-2,-7.055812E-2,1.4205398E-1],"split_indices":[4,4,4,0,4,0,4,4,4,0,4,2,2,2,2,2,0,2,0,2,0,2,2,2,0,0,2,2,0,2,0,2,2,2,2,2,2,0,2,4,0,0,0,0,0,0,4,4,4,4,4,0,0,0,0,4,4,2,0,2,0,2,2,2,2,2,2,2,2,0,0,0,2,0,0,0,0,0,0,0,4,0,0,0,0,4,0,0,0,0,0,0,4,0,0,0,0,0,0,0,0],"split_type":[0,0,0,0,0,0,0,0,0,0,0,0,0,0,0,0,0,0,0,0,0,0,0,0,0,0,0,0,0,0,0,0,0,0,0,0,0,0,0,0,0,0,0,0,0,0,0,0,0,0,0,0,0,0,0,0,0,0,0,0,0,0,0,0,0,0,0,0,0,0,0,0,0,0,0,0,0,0,0,0,0,0,0,0,0,0,0,0,0,0,0,0,0,0,0,0,0,0,0,0,0],"sum_hessian":[3.72E2,2.91E2,8.1E1,1.15E2,1.76E2,3.7E1,4.4E1,2.5E1,1.51E2,1E1,3.4E1,1.7E1,8E0,1.27E2,2.4E1,2.5E1,9E0,1.1E1,6E0,7E0,1E0,1.5E1,1.12E2,2E1,4E0,1.1E1,1.4E1,9E0,2E0,2E0,5E0,5E0,1E1,2.3E1,8.9E1,1.2E1,8E0,1E0,1.3E1,3E0,6E0,1E0,1E0,3E0,2E0,6E0,4E0,1.5E1,8E0,6.2E1,2.7E1,9E0,3E0,2E0,6E0,9E0,4E0,2E0,1E0,3E0,1E0,2E0,1.3E1,2E0,6E0,2.2E1,4E1,1E1,1.7E1,8E0,1E0,1E0,3E0,1E0,1E0,2E0,1E0,1E0,1E0,1E0,1.2E1,1E0,1E0,2E0,4E0,1.8E1,4E0,3.4E1,6E0,1E0,9E0,8E0,9E0,1E0,2E0,7E0,5E0,3E0,1.5E1,1E0,8E0],"tree_param":{"num_deleted":"0","num_feature":"8","num_nodes":"101","size_leaf_vector":"1"}},{"base_weights":[1.9594103E-1,-2.5760987E-1,3.1091301E0,1.5290797E0,-9.3860966E-1,5.862967E0,-3.681738E-1,7.793501E-1,3.3256643E0,-2.8806615E-1,-2.993832E0,9.238192E0,-1.1228876E-1,2.5915117E0,-3.8405213E0,-2.442708E0,3.8821537E0,2.044658E0,3.7076554E-1,-3.482532E0,1.1670185E0,-1.2703726E-1,-8.094391E-1,4.835049E0,1.1972822E1,-6.638776E-1,6.5551076E0,-1.0987314E-1,1.3184762E-1,-1.1669101E-1,-8.8036406E-1,9.550197E0,-7.711679E-1,4.5895905E0,-1.0385878E-1,-2.332808E0,-1.0614903E-1,3.6506394E-1,6.024947E-1,1.0163645E-1,-1.5068506E0,7.668794E0,-8.7699875E-2,1.5749005E1,8.683065E0,4.3447504E0,-1.3607132E-1,4.940362E-1,-1.6853685E0,2.659453E0,-5.770377E0,4.3400917E0,1.2623741E1,-3.4252908E0,2.9870582E-1,2.4156504E0,4.5792758E-1,-3.0120323E0,3.2347936E-2,1.9538611E0,-2.8776228E0,-1.00482665E-1,7.2942615E-2,3.0117315E-1,4.6336265E0,1.4112385E-1,3.910839E-1,7.5430024E-1,3.0033964E-1,6.34239E0,1.9974798E-2,2.5774688E-1,-9.751072E-2,-2.2334254E-1,4.194475E-1,-7.339576E-2,-1.4479585E-1,2.2828814E-1,1.3998744E0,2.8075427E-1,1.0683496E-1,-1.4679376E0,-1.3701342E-1,3.1039202E-1,8.1378084E-1,-2.080042E0,-9.034931E-2,1.5695478E0,-2.3006246E0,7.1528155E-1,6.0916038E0,-1.737177E0,-5.140632E0,1.685172E-1,-1.0892158E0,2.8469933E-2,5.6824245E0,-5.7678334E-2,8.316848E-2,2.64457E-2,1.6716409E-1,-5.208368E-2,4.105629E-2,1.777412E-1,-2.62877E0,-9.124672E-2,1.1020529E-1,-1.130988E-1,2.303723E0,-9.1593E-2,2.2743547E0,-3.2820442E0,1.957075E0,-1.7244339E-1,6.850249E-2,-5.365532E-2,-1.255173E-2,3.746047E0,-1.1294873E0,2.8302708E-1,3.9072566E0,-3.6714234E0,9.029286E0,-1.1349414E-1,-1.9062046E0,2.0087892E-1,-7.466001E-2,1.5225025E-1,1.9888265E0,-1.2668772E-1,3.072178E0,1.3679576E-1,-8.040196E-1,1.4989716E-1,-1.4164194E0,-8.952557E-2,-1.713906E0,1.4777088E-1,-1.1406583E0,4.1641634E-2,-7.063755E-2,1.6945359E0,2.9855257E-1,3.7907586E-1,-2.8901968E0,2.8575885E0,1.6175564E-1,-2.043481E0,-1.3415907E-1,3.6217775E0,2.6011646E-1,2.8482586E-2,-8.6671986E-2,-2.083384E0,3.3633825E-1,-7.453848E-2,1.3525002E-1,7.5268954E-2,3.960268E-3,-8.810212E-2,1.3937071E-1,-1.0767879E-1,8.716791E-3,4.7029343E-2,-6.9013946E-2,-9.098745E-2,2.8932696E-2,1.1888036E-1,-1.025519E-2,-4.906706E-2,1.5355054E-1,-1.1205538E-1,-3.7568728E-3,7.0861764E-2,-7.021955E-2,-1.2321815E-1,1.1922197E-2,1.2526391E-1,-1.4704383E-2,-1.1050945E-1,-2.173978E-2],"categories":[],"categories_nodes":[],"categories_segments":[],"categories_sizes":[],"default_left":[0,0,0,0,0,0,0,0,0,0,0,0,0,0,0,0,0,0,0,0,0,0,0,0,0,0,0,0,0,0,0,0,0,0,0,0,0,0,0,0,0,0,0,0,0,0,0,0,0,0,0,0,0,0,0,0,0,0,0,0,0,0,0,0,0,0,0,0,0,0,0,0,0,0,0,0,0,0,0,0,0,0,0,0,0,0,0,0,0,0,0,0,0,0,0,0,0,0,0,0,0,0,0,0,0,0,0,0,0,0,0,0,0,0,0,0,0,0,0,0,0,0,0,0,0,0,0,0,0,0,0,0,0,0,0,0,0,0,0,0,0,0,0,0,0,0,0,0,0,0,0,0,0,0,0,0,0,0,0,0,0,0,0,0,0,0,0,0,0,0,0,0,0,0,0,0,0,0,0,0,0],"id":12,"left_children":[1,3,5,7,9,11,13,15,17,19,21,23,-1,25,27,29,31,33,-1,35,37,-1,39,41,43,45,47,-1,-1,-1,49,51,53,55,-1,57,-1,-1,59,-1,61,63,-1,65,67,69,-1,-1,71,73,75,77,79,81,-1,83,-1,85,87,89,91,-1,93,-1,95,-1,-1,97,-1,99,-1,101,-1,103,-1,-1,-1,-1,105,-1,-1,107,-1,-1,109,111,-1,113,115,117,119,121,123,-1,125,-1,127,-1,-1,-1,-1,-1,-1,-1,129,-1,-1,-1,131,-1,133,135,137,139,-1,-1,-1,141,143,-1,145,147,149,-1,151,153,-1,-1,155,-1,157,-1,159,-1,161,-1,163,-1,165,-1,-1,167,-1,169,171,173,-1,175,-1,177,-1,-1,-1,179,-1,-1,-1,-1,-1,-1,-1,-1,-1,-1,-1,-1,-1,-1,-1,-1,-1,-1,-1,-1,-1,-1,-1,-1,-1,-1,-1],"loss_changes":[4.8946216E2,3.91742E2,4.797815E2,1.1741144E2,3.1061383E2,1.1274937E3,2.443021E2,6.473693E2,4.7061108E2,8.305758E2,4.0541373E2,2.1159705E2,0E0,1.7036592E2,2.2058704E2,1.6442238E2,8.743734E2,4.8008807E2,0E0,1.0614374E2,1.1755409E3,0E0,1.502831E2,2.8892456E2,3.7178345E1,2.6954E2,9.197396E2,0E0,0E0,0E0,4.1020474E2,1.8929163E2,8.339239E2,7.024009E2,0E0,5.7760025E1,0E0,0E0,5.6893964E2,0E0,1.7758472E2,1.1439432E2,0E0,3.7900757E1,4.3676465E2,2.7051239E1,0E0,0E0,3.1505423E1,7.3803015E2,6.646057E0,1.2913931E2,2.4151855E1,1.0425836E2,0E0,3.6436908E2,0E0,3.0688202E1,3.5167427E1,4.4143433E2,7.945331E1,0E0,2.3055959E2,0E0,1.595076E1,0E0,0E0,7.14795E1,0E0,